<?xml version="1.0"?>
<opencv_storage>
<opencv_ml_svm>
  <format>3</format>
  <svmType>C_SVC</svmType>
  <kernel>
    <type>LINEAR</type></kernel>
  <C>2.</C>
  <term_criteria><epsilon>1.1920928955078125e-07</epsilon>
    <iterations>1000</iterations></term_criteria>
  <var_count>325</var_count>
  <class_count>2</class_count>
  <class_labels type_id="opencv-matrix">
    <rows>2</rows>
    <cols>1</cols>
    <dt>i</dt>
    <data>
      -1 1</data></class_labels>
  <sv_total>1</sv_total>
  <support_vectors>
    <_>
      7.04506019e-05 -5.92245306e-06 4.47699961e-07 -1.88565400e-06
      -9.92229957e-07 1.67087637e-05 5.86821334e-05 -5.68119276e-06
      6.95053544e-08 -1.39401327e-05 -1.08228357e-06 -4.25076564e-07
      6.97435780e-08 -4.97361782e-07 -2.20526126e-05 -2.49636128e-06
      3.29838695e-05 -1.47834464e-04 -1.30936414e-07 7.51381913e-06
      -1.21172127e-06 -2.03138811e-07 1.40901529e-05 -1.29372745e-06
      -1.81522391e-05 5.37443903e-08 -8.19075922e-07 -2.14504848e-06
      8.72364847e-09 -1.61199307e-06 -5.59841205e-08 -6.17276382e-05
      -2.72224270e-07 -3.04134517e-07 -2.59491202e-07 -7.43117380e-06
      -7.59937611e-05 3.19265450e-06 -1.74510262e-06 -5.58364604e-07
      2.46955074e-06 2.52792597e-06 5.44219958e-08 1.32458908e-07
      -4.83025701e-07 -1.83986697e-06 1.74706045e-08 -1.01014329e-07
      -1.82144686e-06 -6.80438802e-07 1.42311910e-05 1.18942362e-05
      -9.26261055e-06 -3.40198749e-05 2.17923503e-06 5.50321957e-08
      1.25856313e-04 1.95192861e-05 2.74749755e-06 2.56484714e-06
      2.14774741e-06 -3.02031731e-06 -1.77883692e-06 -5.95652409e-07
      -6.33691961e-05 -5.90896093e-07 5.86864246e-08 -1.66031132e-05
      1.83800728e-06 -4.49045729e-07 5.70644616e-08 1.43876804e-08
      1.65168478e-06 6.62192542e-06 -4.67348627e-06 -4.57866554e-06
      -5.21175252e-07 9.76008437e-07 4.03368722e-06 2.75306107e-08
      -1.56551359e-05 -5.57180954e-07 -1.48201889e-05 7.47571539e-06
      -5.88058402e-09 -5.90086480e-10 -4.65282938e-06 5.06338608e-07
      -2.66229799e-05 1.33704016e-05 -1.29053916e-07 9.33128987e-08
      -1.38121800e-06 5.88538796e-07 -6.59364275e-07 6.50078937e-06
      -5.11352249e-09 -4.81976940e-07 -5.13849574e-10 -4.38515031e-07
      -4.24646174e-07 1.30421540e-07 -1.52935598e-07 3.13482467e-08
      -4.95355579e-08 -1.49350490e-05 1.55939730e-07 -5.84463196e-05
      1.44251399e-05 3.43068535e-07 -8.46750140e-07 8.29224192e-08
      -3.04760329e-06 -7.35873182e-05 1.21050516e-05 -1.12394218e-06
      6.67832225e-08 6.25931625e-06 -4.92359709e-09 -4.67654019e-07
      -1.28612276e-08 -4.94812968e-10 3.45336412e-06 -8.64926847e-07
      -2.67936502e-06 -5.57546059e-07 1.15975199e-05 -9.12313158e-09
      2.66187126e-08 -1.87558749e-06 -8.36822437e-06 -9.14964660e-10
      -1.11326162e-05 1.81906944e-06 1.19612023e-05 1.09466619e-05
      -5.74946534e-06 2.96963147e-08 1.08406226e-07 5.65117916e-05
      6.21415438e-06 6.72133060e-09 -2.84306793e-07 1.05964782e-05
      -3.88896410e-07 9.07629172e-08 2.22742415e-06 -7.10294330e-07
      -2.40534548e-09 1.73636479e-07 5.65493341e-09 -2.85374767e-06
      1.99180406e-08 1.36291789e-07 1.07405100e-07 4.49113458e-07
      -3.72991536e-07 3.07355208e-08 -1.14335617e-05 -1.31483510e-04
      -1.92723704e-09 3.60770741e-06 -7.32123739e-09 -2.23950701e-04
      7.02003535e-06 4.75470529e-07 -7.58290412e-07 -3.54487133e-06
      8.75080696e-06 1.08362804e-06 2.37546828e-05 -3.49082029e-07
      3.35665868e-06 -1.06137531e-05 3.50753523e-11 1.19520200e-06
      -9.40020062e-10 -8.82143709e-08 -9.42131928e-11 -1.33946614e-05
      -2.41395355e-07 -7.47493914e-07 2.09103309e-05 5.60627171e-08
      1.56290554e-07 -7.87369936e-06 5.99311315e-05 2.18965450e-08
      1.35213486e-06 -3.17517873e-07 -5.94377798e-06 -1.86077023e-06
      2.39895410e-08 -2.04398165e-09 4.82643600e-06 -5.39723032e-06
      -3.11126223e-06 -9.14841075e-06 7.83066571e-06 1.69087457e-06
      7.46659680e-06 1.41445993e-08 1.21355265e-06 1.98560665e-04
      -9.55858695e-07 1.31658908e-05 1.45040885e-05 2.88324354e-05
      4.04310122e-05 -2.38141055e-07 -6.62897583e-06 -4.98172221e-06
      -2.72774173e-06 3.06508832e-06 9.16144984e-07 4.00632132e-08
      1.71378724e-05 2.35892003e-06 1.20286381e-06 1.27191188e-05
      1.10562361e-07 8.96456004e-06 -1.00024813e-07 3.38655154e-05
      -7.91911305e-07 -1.88927167e-08 1.64478445e-06 4.95166091e-07
      -4.04219973e-05 3.81208270e-06 2.05560468e-06 8.79073184e-07
      3.48383446e-06 -1.01546152e-06 -1.82805351e-07 1.68058759e-05
      2.20541347e-06 6.98636768e-06 3.54474923e-06 -6.55093436e-06
      2.28288059e-06 -2.76146352e-07 -2.93051361e-09 3.72489626e-06
      -2.96630193e-10 -3.96492811e-10 5.02770126e-06 -3.95454114e-09
      9.30720390e-08 4.34878211e-06 -6.17427929e-07 4.22726444e-05
      1.22457022e-05 -3.74494419e-07 4.21034611e-06 -2.29202568e-09
      1.68438492e-05 4.04983030e-06 1.58269842e-08 3.32718446e-06
      -1.51182201e-06 1.13181577e-05 -1.76252180e-09 7.71995644e-07
      -3.96685906e-10 -1.82750526e-09 6.72279086e-08 -9.80529990e-07
      -5.16021089e-07 5.53149334e-07 -2.89037653e-05 -1.82763614e-07
      1.43299723e-04 -1.69163905e-05 -1.94846024e-07 2.67470455e-07
      -3.55397987e-07 -3.30241136e-07 -5.51503035e-07 -6.95257677e-06
      6.91134210e-06 1.59053143e-05 2.48755459e-05 1.40954146e-08
      2.99933777e-06 -2.87444664e-06 1.16200845e-07 -1.59197452e-06
      -9.43997929e-06 2.52584925e-07 -2.47912624e-07 -3.07048009e-09
      -1.33015760e-07 -3.77903490e-07 8.37331015e-07 5.93007208e-08
      9.12840505e-07 -2.26770581e-07 4.27659234e-06 1.84099008e-05
      1.00653345e-07 -5.99034308e-07 2.03548625e-05 1.59414230e-06
      8.32676014e-05 4.70563009e-06 3.62410475e-07 -2.07615067e-05
      8.31285320e-07 1.78380997e-05 -3.52745774e-05 1.56959577e-05
      -1.06333046e-05 -5.69406111e-05 6.83407188e-06 -1.87786020e-06
      -5.62806406e-07 2.68338886e-06 -1.91471003e-07 4.53072062e-06
      4.93221887e-06 3.79540865e-07 2.05618871e-05 5.73916566e-07
      -6.06309492e-09</_></support_vectors>
  <uncompressed_sv_total>42</uncompressed_sv_total>
  <uncompressed_support_vectors>
    <_>
      255. 3.25938797e+00 -2.24208996e-01 2.94930995e-01 1.86361206e+00
      1.10598996e-01 -2.75120201e+01 -4.25072813e+00 5.92549026e-01
      -3.24880562e+01 3.33640599e+00 5.19390392e+00 2.19272003e-01
      2.29361510e+00 13. 8.82949257e+00 4.39180756e+01 2.91874902e+04
      1.10598996e-01 5.43829395e+03 -7.69250020e-02 9.07893002e-01
      -3.46533489e+00 2.10475521e+01 1.37928482e+02 5.89078009e-01
      -2.62124705e+00 -3.03348088e+00 0. 0. 3.22699989e-03
      4.42999451e+02 1.35477102e+00 4.15580606e+00 5.81084204e+00
      -5.27485418e+00 1.71389282e+02 255. 1.39822400e+00 2.99791408e+00
      1.17921400e+00 1.52073727e+01 5.19533992e-01 3.18836555e+01
      2.13632894e+00 -2.41132006e-01 3.98939997e-02 3.68660018e-02
      9.33239136e+01 1.21812403e+00 2.37419357e+01 2.61409961e+04
      6.48847914e+00 196. 1.28840995e+00 5.26748002e-01 2.82307871e+04
      1.01656750e+03 2.30200007e-03 1.38205695e+00 7.92626715e+00
      -1.70600498e+00 5.61400909e+01 2.10773110e+00 2.25822632e+03
      2.87504792e+00 3.93721014e-01 9.58525002e-01 1.83225803e+01
      4.23963010e-01 6.49882019e-01 9.97890010e-02 -8.06818008e+00
      1.09089601e+00 0. 1.86175096e+00 1.13531196e+00 1.31428566e+01
      1.15080404e+00 7.06001997e-01 2.72080803e+00 1.31949081e+01
      -1.04268579e+01 8.15668411e+01 1.41124994e-01 1.39739998e-02
      -1.69686103e+00 2.72253007e-01 -1.32269993e-01 1.69701824e+01
      3.68660018e-02 -6.26881003e-01 1.74135804e+00 -2.03025198e+00
      1.28893995e+00 8.15658112e+01 1.41126007e-01 1.31950054e+01
      1.39739998e-02 1.64473403e+00 6.09047413e+00 5.86023986e-01
      1.84330009e-02 5.16080976e-01 8.96194994e-01 2.92350235e+01
      -1.46855831e+01 3.76096008e+02 -2.95143185e+01 -1.85246897e+00
      -3.52325511e+00 3.09787393e+00 9.34091263e+01 1.09550041e+02
      2.40870595e+00 2. 2.07167000e-01 8.15658112e+01 1.41126007e-01
      1.31950054e+01 5.65564990e-01 1.39739998e-02 5.30900621e+00
      1.31827631e+01 1. 1.42907095e+00 8.17306137e+01 1.40995994e-01
      2.45839000e-01 9.34345474e+01 2.27281113e+01 1.39610004e-02
      1.41935503e+00 1.00104456e+01 2.13640556e+01 2.40546367e+04
      4.27465439e+01 2.05769002e-01 5.29177380e+00 1.48999893e+04 193.
      2.51669995e-02 4.78402090e+00 4.42458987e-01 1.27127099e+00
      5.61384022e-01 1.00105114e+01 2.61344290e+00 3.73720005e-02
      9.83019993e-02 1.87909994e-02 -1.53723640e+01 6.61019981e-02 0.
      3.06820183e+01 2.29732394e+00 4.77112198e+00 2.01180000e-02
      2.15483875e+01 5.49372978e+01 9.89599973e-02 2.51446199e+00
      1.14252001e-01 6.08903625e+02 194. 1.18241704e+00 1.49689004e-01
      9.41386292e+02 1.19664850e+01 7.48730004e-01 1.62237411e+02
      6.04898691e+00 -8.97421837e+00 2.31575756e+01 3.16033006e-01
      8.15658112e+01 1.41126007e-01 1.31950302e+01 1.39739998e-02
      -3.42344809e+00 1.17369294e+00 5.80746889e+00 2.48341064e+03
      2.79569998e-02 7.17122972e-01 2.55668201e+01 4.08139673e+03
      2.11330000e-02 5.71429014e-01 3.00932193e+00 2.74654388e+00
      9.34401703e+01 1.21166997e-01 9.89649966e-02 1.00765375e+03
      5.81031418e+00 26. 4.88913727e+01 1.59867048e+01 1.00104456e+01
      1.00104456e+01 1.98350009e-02 -4.55237484e+00 5.63938330e+03
      -7.08173990e-01 88. 1.90599079e+01 207. 7.62206348e+03
      6.05610895e+00 3.06175117e+01 1.05953999e-01 9.17463005e-01
      1.59310074e+01 1.84330009e-02 6.40277982e-01 1.53179722e+01
      1.27373266e+01 7.50958252e+01 1.58593500e+00 6.74939975e-02
      7.21423291e+03 7.37330019e-02 96. 3.56086397e+00 3.47730011e-01
      -1.90023005e-01 -2.31169999e-01 7.60472559e+03 1.59867048e+01
      3.17435627e+01 6.60978019e-01 1.00208292e+01 1.54131901e+00
      3.61550003e-02 3.44592822e+03 3.27782989e-01 9.21658993e-01
      1.59867048e+01 2.28571434e+01 1.00892353e+01 1.31236401e+01
      1.40361995e-01 8.25368042e+01 1.38969999e-02 1.39739998e-02
      8.15658112e+01 1.41126007e-01 9.20943022e-01 1.00059509e+01
      3.64888310e+00 1.61137253e+02 1.00276499e+01 1.31951332e+01
      -1.66900301e+00 6.14173508e+00 1.67188931e+01 1.59856672e+01
      5.78242004e-01 1.59867048e+01 -1.88886201e+00 2.36497707e+01
      9.84530002e-02 -3.80486202e+00 9.89559963e-02 9.89599973e-02
      7.74194002e-01 9.34401703e+01 2.31124306e+00 1.59550037e+01
      6.05911522e+01 -9.30615008e-01 3.73112915e+02 8.75072784e+01
      1.59321136e+01 6.87476993e-01 1.02897406e+01 -2.25399993e-02
      9.35131378e+01 2.02027645e+01 -8.89921665e+00 8.95163965e+03
      1.51064501e+01 6.07290007e-02 1.00104456e+01 1.49134505e+00
      6.40284002e-01 1.00843430e+01 2.01938305e+01 6.55646992e+00
      1.00374098e+01 9.88920033e-02 3.59783912e+00 3.50003290e+00
      9.07499015e-01 4.68582988e-01 -2.05174398e+00 1.34974003e-01
      1.59744282e+01 3.75483856e+01 0. 9.41930237e+01 2.06324596e+01
      1.00988941e+01 3.41201813e+02 0. 8.05999470e+00 1.03860832e+02
      3.95927995e-01 5.25167580e+01 7.62332764e+03 2.42027645e+01
      9.65653809e+03 3.93010559e+02 1.77375574e+03 -4.01682091e+00
      1.92501295e+00 1.59160347e+01 1.29032001e-01 4.00737343e+01
      1.38064518e+01 1.28980005e+00 -2.03619499e+01 1.84331998e-01
      3.94119993e-02</_>
    <_>
      255. 4.66623992e-01 -2.57488012e-01 6.73890209e+00 1.09716105e+00
      2.35162792e+01 3.33075867e+01 1.04815178e+01 7.18632996e-01
      3.76747894e+00 6.89679980e-02 4.34801817e+00 3.42575014e-01
      1.25141597e+00 18. 1.94725761e+01 -5.94779930e+01 7.40518262e+03
      1.47010997e-01 9.33642480e+03 -9.69960019e-02 7.81470016e-02
      3.92374992e-01 2.38259754e+01 2.22077606e+02 5.78954995e-01
      6.81846976e-01 -3.63745987e-01 0. 0. 1.09999999e-02 5.67677124e+02
      1.65596104e+00 4.68713903e+00 6.12644291e+00 -1.79688301e+01
      2.16979477e+02 255. 1.78658466e+01 9.04583991e-01 -4.26276588e+00
      1.99643999e-01 7.12302983e-01 2.37828388e+01 1.02016306e+00
      -2.78818798e+00 8.01939964e-02 5.44499978e-03 1.10786972e+02
      6.97791994e-01 6.94671326e+01 4.19584424e+03 5.66027794e+01 152.
      1.69760007e-02 7.10093975e-01 7.34905469e+03 5.65623413e+02
      4.85477000e-01 -4.39882421e+00 3.99289988e-02 8.71616006e-01
      1.16309303e+02 2.38412499e+00 2.49433130e+03 9.38768029e-01
      2.89274991e-01 1.95832896e+00 9.81886983e-01 1.41202903e+00
      6.87186003e-01 6.09700009e-02 -2.08934402e+00 -1.17225897e+00
      8.11281979e-01 1.24396534e+01 1.50997901e+00 2.47377396e+00
      -5.31793022e+00 6.63210988e-01 -3.34372292e+01 1.16723938e+01
      -2.91382098e+00 1.02002632e+02 1.25048995e-01 1.23469997e-02
      -4.49250005e-02 -5.69984972e-01 2.31753111e+00 -2.35682926e+01
      6.89679980e-02 2.32288003e-01 1.17095697e+00 -5.08957815e+00
      1.22077405e+00 1.01978401e+02 1.25067994e-01 1.16730127e+01
      1.23500004e-02 9.01308000e-01 4.70877504e+00 -4.84962177e+00
      1.81499997e-03 7.43423998e-01 1.45747602e+00 2.27267780e+01
      -2.17817497e+00 1.81886597e+02 6.20238400e+00 3.57898688e+00
      1.80065799e+00 2.09557390e+00 8.41816711e+01 1.50209900e+02
      -3.72509003e-01 2. 2.96860993e-01 1.07597084e+02 1.20647997e-01
      1.12480831e+01 6.98785007e-01 1.19059999e-02 -2.98174691e+00
      1.12438116e+01 0. 1.44947100e+00 1.07602142e+02 1.20644003e-01
      1.79260999e-01 8.84636078e+01 5.50618896e+01 1.19099999e-02
      9.86242676e+00 1.25704546e+01 8.71170014e-02 3.08857129e+03
      3.41210008e-01 4.49111998e-01 4.11206007e+00 3.37377246e+03 183.
      1.85809992e-02 4.88062382e+00 6.28861618e+00 -1.50885001e-01
      7.40567029e-01 1.26277351e+01 8.08759987e-01 8.99889991e-02
      3.02444994e-01 1.32192001e-01 7.07106590e+00 6.83239996e-02
      3.08539998e-02 3.27500153e+01 -3.96869004e-01 4.40152693e+00
      5.91920018e-02 4.75516415e+00 9.51855392e+01 9.02049989e-02
      3.86182189e+00 1.18602000e-01 4.23510284e+02 178. 1.35974205e+00
      2.38125995e-01 1.07256360e+03 -2.12899998e-01 -2.23140009e-02
      1.22714890e+02 4.74468184e+00 -1.00645590e+01 1.73560905e+00
      3.75955999e-01 9.81000748e+01 1.28119007e-01 1.19599400e+01
      1.26590002e-02 1.55093205e+00 1.16658604e+00 4.27064180e+00
      1.69215898e+04 8.75680000e-02 1.12300003e-02 2.04835014e+01
      5.98964453e+03 5.78260012e-02 3.99560776e+01 7.25225985e-01
      1.86104755e+01 8.51798172e+01 8.54810029e-02 8.99460018e-02
      3.44394287e+02 7.79953003e-01 26. 2.81809998e+01 1.77044830e+01
      1.43749113e+01 1.23970442e+01 7.61279985e-02 2.09620690e+00
      1.61508008e+03 1.26989496e+00 192. 1.46048861e+01 178.
      7.88274072e+03 4.33568811e+00 3.26418381e+01 -3.19085097e+00
      1.59888998e-01 1.65005455e+01 2.35939994e-02 7.21090972e-01
      6.49932814e+00 3.55911303e+00 4.01880608e+01 7.42266512e+00
      1.53970001e-02 2.71488794e+03 7.25999987e-03 157. -4.46586514e+00
      3.11755002e-01 -8.97733986e-01 -4.20751989e-01 1.60606406e+04
      2.22369156e+01 1.85578632e+01 -3.67618895e+00 1.47039785e+01
      6.71046019e-01 -2.65919995e-02 6.29848450e+02 6.69110000e-01
      5.21271172e+01 1.95642872e+01 2.41624012e+01 1.13687458e+01
      1.23384581e+01 1.31981999e-01 9.31895370e+01 1.30460002e-02
      1.18490001e-02 1.08255440e+02 1.20130002e-01 9.80355978e-01
      7.45397282e+00 5.98896694e+00 7.43850479e+01 2.55000210e+00
      1.12062454e+01 2.55878001e-01 3.22854400e+00 6.06410408e+01
      1.90783215e+01 6.74690008e-01 2.20543995e+01 -1.15537338e+01
      6.36683702e+00 9.31330025e-02 6.84385002e-01 9.18970034e-02
      8.85199979e-02 3.82954001e-01 8.81657562e+01 1.57020497e+00
      1.95980988e+01 9.61271896e+01 8.45486999e-01 8.52140198e+02
      4.79093246e+01 1.87271919e+01 1.05229497e+00 1.45139205e+00
      1.38750002e-01 9.16763000e+01 6.48480892e+00 1.00526600e+01
      5.13270020e+03 -1.37580566e+01 6.51360005e-02 1.52037506e+01
      -1.65423095e+00 6.99481010e-01 1.33346367e+01 -1.59235849e+01
      3.58638310e+00 1.36612825e+01 8.98149982e-02 3.16722608e+00
      4.34957504e+00 5.43668509e+00 -1.32407296e+00 -5.25350012e-02
      -5.89759983e-02 2.16646862e+01 2.34727211e+01 3.62990014e-02
      1.45537994e+02 1.92283783e+01 1.35063543e+01 4.13323334e+02
      2.03273997e-01 8.29805088e+00 1.38853119e+02 8.37203026e-01
      3.30099792e+01 9.07793945e+03 1.00003600e+00 2.08958252e+03
      8.67178879e+01 1.05045811e+04 -2.17877197e+00 1.42526305e+00
      1.99913502e+01 1.01636998e-01 7.31423974e-01 9.98220980e-01
      -8.14418018e-01 5.69075127e+01 6.71529993e-02 6.93869963e-02</_>
    <_>
      255. -3.74928689e+00 5.39812982e-01 1.41755998e-01 1.92503905e+00
      4.89736900e+01 7.90566101e+01 -5.29811811e+00 6.07388973e-01
      -6.93675995e-01 2.72170991e-01 5.19389820e+00 2.12605998e-01
      1.76016295e+00 10. 4.21864414e+00 -2.75768590e+00 3.64161641e+04
      1.70109998e-02 2.77592505e+03 -4.76888001e-01 -1.53511003e-01
      -2.36233592e+00 1.73684559e+01 1.85346619e+02 5.56697011e-01
      -5.36976993e-01 1.38871998e-01 0. 0. -1.69699993e-02
      3.01663239e+02 1.21573400e+00 3.95624208e+00 6.37259007e+00
      1.12478094e+01 5.85312958e+01 255. -6.72082710e+00 1.54862702e+00
      5.47317028e-01 2.20571589e+00 6.61938012e-01 2.95396690e+01
      1.77823198e+00 -1.21726298e+00 4.19929996e-02 9.63940024e-02
      8.94353714e+01 -2.71061987e-01 7.76820087e+00 2.20975449e+04
      3.63461089e+00 218. -8.88562977e-01 6.51542008e-01 3.70612383e+04
      8.72592041e+02 1.19557999e-01 -8.63989162e+00 1.15105498e+00
      -5.57308972e-01 1.37298019e+02 2.69293308e+00 2.06452588e+03
      1.73404801e+00 4.75935012e-01 9.75277805e+00 3.94647288e+00
      1.70109998e-02 7.39431977e-01 9.86879990e-02 4.48024005e-01
      2.46663004e-01 1.02064002e+00 1.03368111e+01 1.02766097e+00
      7.30891418e+00 1.93076897e+00 6.93518996e-01 3.14036489e+00
      1.26199579e+01 -1.10800838e+01 8.95027237e+01 1.34882003e-01
      1.33400001e-02 -7.14424014e-01 -1.70847997e-01 -4.08573985e-01
      1.49796009e+01 5.67019992e-02 2.46025896e+00 1.68669701e+00
      -8.35611999e-01 1.95191598e+00 9.28342896e+01 1.32260993e-01
      1.23929930e+01 1.30730001e-02 8.10783029e-01 5.50654697e+00
      3.59715605e+00 1.13399997e-02 6.94662988e-01 1.57107306e+00
      3.39135857e+01 -1.14792597e+00 4.28080383e+02 1.24240637e+01
      9.16051984e-01 2.85227895e+00 2.03152204e+00 9.51432571e+01
      1.23622421e+02 -4.66944009e-01 2. 4.76390988e-01 9.01860733e+01
      1.34343997e-01 1.25662127e+01 6.05363011e-01 1.32860001e-02
      -1.36647105e+00 1.27194834e+01 0. 9.20657992e-01 8.81213684e+01
      1.35968998e-01 4.12391990e-01 9.56748047e+01 2.42458611e+01
      1.34500004e-02 6.06714010e-01 1.17169619e+01 1.87116995e-01
      1.47662334e+04 2.05829000e+00 2.41012007e-01 5.03439808e+00
      8.08743408e+03 178. 1.51939997e-02 4.02300882e+00 -7.81338978e+00
      7.57199973e-02 6.40285015e-01 1.07194662e+01 1.66961503e+00
      4.59630005e-02 1.19695999e-01 2.33810004e-02 4.27959108e+00
      1.16522998e-01 0. 2.04742012e+01 3.44711006e-01 3.78996301e+00
      3.25030014e-02 2.20684967e+01 1.15922432e+02 9.29979980e-02
      2.25020695e+00 1.28275007e-01 1.87678070e+02 175. 1.18152905e+00
      -9.85369980e-02 4.19192932e+02 4.86343813e+00 2.61630006e-02
      1.58538956e+02 5.58628416e+00 5.82957029e-01 -1.15399206e+00
      2.41732001e-01 8.26841202e+01 1.40246004e-01 1.31130219e+01
      1.38849998e-02 -7.08702421e+00 1.77160597e+00 5.33454895e+00
      3.24017139e+03 3.73900011e-02 1.60668999e-01 2.19664326e+01
      9.87144824e+03 3.61859985e-02 3.51554006e-01 1.27416003e+00
      1.49863911e+01 9.47832031e+01 6.34509996e-02 9.49900001e-02
      7.12546875e+02 3.62514210e+00 22. 1.71574497e+01 1.59363537e+01
      1.08303270e+01 1.00954828e+01 4.20969985e-02 -6.55949402e+00
      2.81501880e+03 -2.08612800e+00 125. 1.71467457e+01 204.
      7.67919775e+03 5.21169090e+00 1.86096611e+01 -1.01140002e-02
      -1.40266395e+00 1.58416338e+01 1.24744996e-01 7.37818003e-01
      8.39759636e+00 1.06373329e+01 5.30567513e+01 7.34522009e+00
      1.76059995e-02 1.02636826e+04 1.13399997e-02 167. 9.56646025e-01
      1.46454006e-01 1.85021198e+00 -1.52310003e-02 8.59981836e+03
      1.58781500e+01 2.66935749e+01 4.95809987e-02 1.06890278e+01
      1.02213800e+00 2.71339994e-02 2.79421362e+03 1.90302396e+00
      2.56407356e+01 1.63201771e+01 4.45736008e+01 1.03586397e+01
      1.29171619e+01 1.38191000e-01 8.52963562e+01 1.36770001e-02
      1.38320001e-02 8.33523483e+01 1.39719993e-01 8.74704003e-01
      -1.12629294e+00 6.29615211e+00 2.07646149e+02 5.13721895e+00
      1.30630369e+01 -1.54325902e+00 6.89641905e+00 3.01485596e+01
      1.60630779e+01 6.45664990e-01 1.60665569e+01 -3.85989594e+00
      8.04037189e+00 9.72530022e-02 6.17267013e-01 9.83840004e-02
      9.46730003e-02 1.24744996e-01 1.00303078e+02 1.48108494e+00
      1.59231777e+01 7.54223785e+01 4.15087014e-01 7.26389709e+02
      8.84583817e+01 1.58797932e+01 5.69648027e-01 1.00041475e+01
      -9.86829996e-02 9.27615738e+01 1.74756184e+01 -7.51381922e+00
      1.14055313e+04 2.82916012e+01 1.16901003e-01 1.01340189e+01
      3.18021607e+00 6.61796987e-01 1.02415295e+01 -1.10250616e+01
      4.94819784e+00 1.00766602e+01 9.55910012e-02 3.26296806e+00
      3.52641010e+00 -2.82260001e-01 -5.27291000e-01 7.25887489e+00
      2.42430001e-01 1.60708942e+01 1.78952141e+01 1.64435998e-01
      9.70821686e+01 3.60773354e+01 1.10092764e+01 1.26585388e+03
      1.93354499e+00 7.84755278e+00 1.47297974e+02 3.89096689e+00
      4.27480888e+01 8.12002051e+03 1.50034018e+01 3.75581958e+03
      3.04408203e+02 4.56109033e+03 -4.33717012e+00 1.50978994e+00
      1.59771032e+01 5.67019992e-02 4.58153820e+00 1.48559797e+00
      1.46334007e-01 5.14360504e+01 8.50529969e-02 7.68150017e-02</_>
    <_>
      224. -2.74906898e+00 3.81469987e-02 1.14805698e+00 2.05997705e+00
      9.07595444e+00 -2.77649212e+01 -3.01860988e-01 6.39424980e-01
      1.16197319e+01 7.58837891e+00 4.89017391e+00 2.22567007e-01
      1.06643605e+00 14. 2.15715790e+01 -1.43392267e+01 1.35902822e+04
      7.00000022e-03 4.45254639e+03 4.05431002e-01 1.62287995e-01
      -1.35164201e+00 1.99566021e+01 2.05552124e+02 6.52119994e-01
      7.13889971e-02 6.87527001e-01 0. 0. -3.90999997e-03 3.98265991e+02
      1.30475497e+00 4.45378780e+00 5.60606909e+00 -2.89135094e+01
      1.69583557e+02 255. 2.96997994e-01 1.14168000e+00 -4.77461910e+00
      4.58523005e-01 6.92614973e-01 2.40305557e+01 1.76914799e+00
      1.21233201e+00 6.84629977e-02 3.15020010e-02 9.36178894e+01
      -4.95945990e-01 3.26951332e+01 1.04610371e+04 2.00420017e+01 164.
      -1.22500098e+00 6.96370006e-01 1.46496045e+04 5.77467590e+02
      -1.66330993e-01 -5.03356504e+00 1.05005004e-01 3.14720106e+00
      1.10807732e+02 1.80892301e+00 2.44205664e+03 1.13919199e+00
      3.16435009e-01 1.61008096e+00 1.66608298e+00 8.05040002e-02
      5.92485011e-01 7.97619969e-02 -7.37666082e+00 -6.01288021e-01
      1.75008997e-01 2.55442772e+01 1.50920105e+00 2.77563906e+00
      -1.78427696e+00 6.61418974e-01 -2.00346317e+01 1.26579447e+01
      5.02207899e+00 8.87333984e+01 1.35487005e-01 1.34070003e-02
      -3.95758003e-01 -7.86360025e-01 2.78938389e+00 -7.62577391e+00
      3.50000011e-03 5.43915987e-01 7.89638996e-01 1.94693998e-01
      1.84716594e+00 9.20153503e+01 1.32905006e-01 1.24125776e+01
      1.31449997e-02 9.89264011e-01 5.32976389e+00 -3.77366996e+00 0.
      6.96009994e-01 8.44354987e-01 5.33286667e+01 -2.20806637e+01
      3.81151520e+02 6.17778003e-01 -1.29086003e-01 8.01960006e-02
      3.07730699e+00 9.00725555e+01 7.32613449e+01 -1.02678502e+00 2.
      2.12217003e-01 8.86110764e+01 1.35582998e-01 1.26661644e+01
      6.93292022e-01 1.34180002e-02 -5.33867407e+00 1.23728819e+01 1.
      2.18553591e+00 9.25643845e+01 1.32473007e-01 1.96937993e-01
      9.09137268e+01 2.83304176e+01 1.31000001e-02 2.06930351e+01
      1.11160059e+01 0. 5.74444727e+03 5.10325508e+01 2.80988991e-01
      4.11730194e+00 6.59915137e+03 175. 3.63509990e-02 5.22620821e+00
      -2.57045288e+01 4.80156004e-01 6.98962986e-01 1.06998425e+01
      1.17512906e+00 1.06850997e-01 2.26144001e-01 4.20290008e-02
      1.25218067e+01 5.98610006e-02 0. 2.71780205e+01 -2.99719501e+00
      4.69659519e+00 4.14879993e-02 1.56002798e+01 6.52268524e+01
      9.51130018e-02 3.79153204e+00 1.05270997e-01 1.15481982e+03 174.
      1.23151505e+00 2.83271015e-01 7.38644775e+02 -6.73687994e-01
      -7.10219026e-01 1.31554855e+02 5.31980085e+00 -1.93230402e+00
      6.76430702e+00 2.61280000e-01 9.18137283e+01 1.33064002e-01
      1.24477720e+01 1.31550003e-02 -5.51048422e+00 2.28465700e+00
      4.72417116e+00 1.10737871e+04 6.68599978e-02 1.54541999e-01
      2.73818684e+01 6.35986084e+03 4.21070009e-02 7.45187283e+00
      1.03340995e+00 2.80119019e+01 9.07145233e+01 9.46210027e-02
      9.67070013e-02 2.18337372e+02 -7.88676977e-01 68. 7.09647827e+01
      1.61950817e+01 1.06397095e+01 1.14130316e+01 4.26880009e-02
      1.28423297e+00 1.52819788e+03 -6.67035997e-01 199. 5.39027023e+00
      179. 7.49329297e+03 5.21245384e+00 1.33356702e+00 1.10937586e+01
      4.71822500e+00 1.59954672e+01 1.40009997e-02 7.15399027e-01
      8.62443066e+00 6.40532017e-01 3.90921707e+01 -6.47939920e+00
      -5.47449999e-02 6.74801123e+03 4.55019996e-02 141. 9.53167629e+00
      2.17641994e-01 1.18983102e+00 1.52732000e-01 7.98090820e+03
      1.61117916e+01 1.47762432e+01 1.12729704e+00 1.13450499e+01
      1.02941895e+00 1.81900000e-03 3.21601904e+03 -1.23935127e+01
      6.74728775e+01 1.64533806e+01 2.61603088e+01 1.06313314e+01
      1.27486362e+01 1.36390001e-01 8.75857010e+01 1.34939998e-02
      1.32889999e-02 9.01411972e+01 1.34379998e-01 9.21948016e-01
      1.54767895e+00 3.88188696e+00 2.99390755e+01 1.88309395e+00
      1.25627012e+01 8.05150986e-01 4.04854202e+00 2.46587334e+01
      1.63770275e+01 7.15009987e-01 1.61157188e+01 -1.52189505e+00
      9.90549469e+00 9.60709974e-02 -5.62904310e+00 9.36129987e-02
      9.69630033e-02 9.80049968e-02 8.98967590e+01 1.92226696e+00
      1.58918467e+01 1.19370811e+02 -2.68920008e-02 2.89408386e+02
      6.11874695e+01 1.79113808e+01 9.78914976e-01 -1.39611101e+00
      -1.33206993e-01 9.02854767e+01 2.41967106e+01 -2.44472003e+00
      7.85402246e+03 -2.76006927e+01 4.33249995e-02 1.11372118e+01
      3.72853994e-01 7.69644976e-01 1.33241434e+01 2.70054588e+01
      5.33920813e+00 1.01567698e+01 9.43989977e-02 4.91843700e+00
      4.79392910e+00 -2.08900809e+00 -9.67823982e-01 5.81128001e-01
      -1.35645002e-01 1.64384022e+01 3.85544281e+01 0. 1.00438423e+02
      6.59879982e-01 1.11078463e+01 3.63085358e+02 3.85020003e-02
      7.98257494e+00 1.27781906e+02 -1.93812096e+00 2.60510445e+01
      7.76146631e+03 7.23486185e+00 1.91446716e+03 1.85575226e+02
      7.08262744e+03 -6.89706087e+00 1.73449004e+00 1.63443089e+01
      1.50508001e-01 1.24956203e+00 1.70458496e+00 -2.77512997e-01
      2.00908661e+01 0. 2.43110005e-02</_>
    <_>
      255. 1.67371500e+00 1.34473994e-01 3.05577010e-01 1.43480897e+00
      2.09394016e+01 -3.89070392e+00 -2.83315396e+00 6.67707026e-01
      2.42270088e+00 5.42149991e-02 4.56129694e+00 3.05337995e-01
      1.12523103e+00 13. 9.00219345e+00 6.26787071e+01 5.49922266e+03
      4.43580002e-02 2.71142725e+03 1.37732998e-01 1.04932404e+00
      -2.03274488e+00 2.34575443e+01 1.63414719e+02 6.31519973e-01
      -4.84993994e-01 6.35577023e-01 4.43580002e-02 0. -1.27539998e-02
      5.50256409e+02 1.05185294e+00 4.50422716e+00 5.82550287e+00
      -1.94833012e+01 3.30033783e+02 255. -1.05594802e+00 6.82294011e-01
      -1.71065795e+00 2.10453701e+00 7.64886975e-01 2.26678524e+01
      1.03585601e+00 9.49000008e-03 6.78559989e-02 1.47860004e-02
      8.97283630e+01 1.28953993e-01 2.49784374e+01 4.21532520e+03
      2.87291451e+01 201. 1.03338301e+00 7.57732987e-01 5.58517139e+03
      5.13831604e+02 -2.59810710e+00 7.65137017e-01 6.72761977e-01
      -1.02259505e+00 1.20074371e+02 1.76440001e+00 2.19917407e+03
      7.26127028e-01 2.96961010e-01 1.09662604e+00 6.09428501e+00
      1.79895997e-01 6.32649004e-01 7.98880011e-02 2.39400005e+00
      7.84241974e-01 6.16080016e-02 8.63993740e+00 1.52909005e+00
      1.07592602e+01 -4.28648806e+00 6.51515007e-01 -1.55842981e+01
      1.11014490e+01 3.83428693e+00 1.09623634e+02 1.19053997e-01
      1.17419995e-02 -4.06975001e-01 -2.95668989e-01 2.68912101e+00
      -3.22186546e+01 1.23220002e-02 7.82940015e-02 1.19963706e+00
      -2.86978990e-01 1.04092205e+00 1.09704338e+02 1.18989997e-01
      1.10944157e+01 1.17370002e-02 1.29810500e+00 4.35308886e+00
      -1.34914994e+00 5.12579978e-01 7.80108988e-01 9.86669004e-01
      4.85423508e+01 7.80432999e-01 2.15377045e+02 1.41905708e+01
      -5.85394025e-01 -4.91940007e-02 2.74321389e+00 7.98351517e+01
      3.92119408e+01 4.33987522e+00 2. 2.02635005e-01 1.12699371e+02
      1.16633996e-01 1.08719511e+01 7.16902018e-01 1.14970002e-02
      -4.16790992e-01 1.03162317e+01 0. 1.61818695e+00 1.19982491e+02
      1.10904999e-01 1.83966994e-01 8.58001328e+01 6.75965405e+00
      1.09249996e-02 3.89659691e+01 1.35503368e+01 3.64721000e-01
      2.21103101e+03 1.20259202e+00 4.46653008e-01 3.97030306e+00
      2.01334707e+04 212. 2.69559994e-02 5.15218306e+00 7.87391615e+00
      1.83008999e-01 7.54301012e-01 1.36769581e+01 8.95025015e-01
      1.07179999e-01 3.64719987e-01 2.17390005e-02 1.01341498e+00
      4.55610007e-02 5.17509989e-02 3.34516945e+01 2.95589000e-01
      5.00037622e+00 7.22419992e-02 2.04859657e+01 1.08491585e+02
      8.74280035e-02 9.03670788e+00 1.16708003e-01 7.47536987e+02 209.
      1.47348404e+00 3.40370014e-02 1.11901599e+03 -5.30010891e+00
      -5.83020002e-02 9.54813843e+01 4.45380592e+00 -2.04069090e+00
      9.14035988e+00 4.77306992e-01 9.66804123e+01 1.29235998e-01
      1.20738287e+01 1.27689997e-02 9.20919001e-01 1.57650101e+00
      4.01600218e+00 4.49550635e+03 1.17726997e-01 4.28281009e-01
      1.15305948e+01 3.81598389e+03 6.68990016e-02 1.06951904e+00
      6.03358984e-01 9.28312683e+00 8.49627380e+01 1.01180002e-01
      8.70859995e-02 2.92791779e+02 -2.96514511e+00 38. 4.04454079e+01
      1.71355286e+01 1.44063034e+01 1.23922386e+01 8.90569985e-02
      4.46506119e+00 1.89984045e+03 -1.31321597e+00 120. 7.49895287e+00
      184. 7.86409521e+03 4.07331800e+00 5.72734680e+01 -1.21189998e-02
      3.48727703e+00 1.61709862e+01 9.36440006e-02 6.64937973e-01
      1.93499107e+01 3.69476814e+01 4.35871582e+01 2.38593292e+00
      -1.86810009e-02 3.59327393e+03 7.14659989e-02 110. -3.98712993e-01
      2.88266003e-01 8.40819001e-01 6.78434014e-01 7.49565479e+03
      1.63425808e+01 1.71111584e+01 4.34796005e-01 1.86395893e+01
      1.39431596e+00 -8.98230001e-02 4.01543854e+02 -4.29186678e+00
      6.63988724e+01 2.14687119e+01 7.58766794e+00 1.11483641e+01
      1.25462694e+01 1.34305999e-01 9.02350922e+01 1.32849999e-02
      1.32529996e-02 9.05990448e+01 1.34020001e-01 9.09231007e-01
      -2.29152608e+00 4.03068304e+00 1.16421875e+02 1.11412306e+01
      1.25298615e+01 -9.07689571e+00 4.12042999e+00 3.99566269e+01
      2.14731369e+01 7.00080991e-01 2.16804295e+01 1.89928994e-01
      1.64715748e+01 9.54369977e-02 2.22508621e+01 9.17180032e-02
      8.55330005e-02 7.63939992e-02 8.55191269e+01 1.88236701e+00
      2.08057594e+01 8.69509583e+01 3.44161987e-01 5.43395935e+02
      6.66085434e+01 1.89298191e+01 1.69717300e+00 -6.48380995e-01
      -3.98860008e-01 9.24744797e+01 1.32359104e+01 -8.58082676e+00
      6.65829395e+03 5.61122084e+00 4.68729995e-02 1.10240993e+01
      6.03899002e-01 6.91784978e-01 1.58050747e+01 -2.68757606e+00
      6.90198994e+00 1.61689186e+01 8.44229981e-02 4.41663599e+00
      5.57931709e+00 8.93163979e-01 -1.43043995e-01 2.02610008e-02
      -3.50185007e-01 2.60312176e+01 8.45018387e+00 3.94290015e-02
      9.42764282e+01 -3.17739449e+01 1.09250813e+01 2.02103912e+02
      5.00258982e-01 8.14371967e+00 1.42592346e+02 1.79352403e+00
      4.28709755e+01 8.16973486e+03 2.76005000e-01 2.05126147e+03
      1.04597878e+02 8.20103027e+03 3.04705405e+00 1.87334502e+00
      1.60762978e+01 4.18940000e-02 3.69624672e+01 5.03215885e+00
      1.01069200e+00 3.17941074e+01 2.00103498e+00 2.52299998e-02</_>
    <_>
      241. -1.61656797e+00 3.12909991e-01 2.13638902e+00 1.20888197e+00
      6.66935043e+01 -3.31440544e+01 1.57825100e+00 7.09771991e-01
      -7.83877516e+00 1.65439993e-02 4.76753521e+00 2.55697995e-01
      7.00262010e-01 0. 3.08822006e-01 -2.95040379e+01 6.02841113e+03
      4.41200007e-03 3.01368457e+03 3.39406997e-01 2.86428005e-01
      -5.77574110e+00 1.09575243e+01 1.87157257e+02 7.02740014e-01
      -5.08041978e-01 3.37987989e-01 1.21320002e-02 0. -2.03939993e-02
      1.20067337e+02 1.22335601e+00 3.02395606e+00 5.47576714e+00
      1.71684589e+01 3.80945549e+01 255. -1.00605702e+00 6.87439024e-01
      5.93899012e-01 2.63601989e-01 7.65619993e-01 2.77662792e+01
      7.53821015e-01 -4.05283004e-01 5.83020002e-02 4.41200007e-03
      1.02928612e+02 -2.96552986e-01 3.17921638e+01 5.54318701e+03
      2.12988186e+01 175. 1.01092100e+00 7.57421970e-01 6.25577148e+03
      7.70966309e+02 1.36473000e-01 1.46423900e+00 1.21320002e-02
      1.39521301e+00 1.39739029e+02 1.15227604e+00 1.10195764e+03
      7.25722015e-01 6.85510993e-01 9.79518509e+00 1.36322999e+00
      8.82299989e-03 7.22962022e-01 2.21447006e-01 -1.92550504e+00
      1.48127306e+00 1.21433401e+00 1.22062054e+01 7.23573029e-01
      4.56505680e+00 2.16777802e+00 8.05244982e-01 -1.38667212e+01
      8.95308399e+00 5.63128185e+00 1.38648239e+02 9.62210000e-02
      9.42500029e-03 3.15371007e-01 -3.57551992e-01 -3.52097607e+00
      -1.89684701e+00 3.97059992e-02 5.70713997e-01 1.40425098e+00
      -6.72613978e-01 9.37988997e-01 1.36654572e+02 9.77900028e-02
      9.09916115e+00 9.58499964e-03 4.43627000e-01 4.36087704e+00
      -1.88443005e-01 3.97059992e-02 7.70685971e-01 1.26937699e+00
      3.60517044e+01 2.77388406e+00 4.22013367e+02 2.12634811e+01
      1.85727501e+00 1.16558000e-01 3.05033994e+00 7.23753967e+01
      3.20351448e+01 7.33630991e+00 0. 5.94681978e-01 1.37979736e+02
      9.67470035e-02 9.00088978e+00 8.52114022e-01 9.47900023e-03
      2.64430308e+00 8.69278908e+00 0. 1.07926297e+00 1.41658325e+02
      9.38540027e-02 1.87353000e-01 8.23328781e+01 1.30278931e+01
      9.20899957e-03 7.72828007e+00 2.14148731e+01 3.75000015e-02
      3.43593066e+03 1.31028903e+00 6.58481002e-01 2.53621101e+00
      6.51129199e+03 216. 3.46410014e-02 4.96332216e+00 6.25415897e+00
      -4.93900012e-03 7.67419994e-01 2.15802231e+01 7.43022978e-01
      3.05615008e-01 3.10380012e-01 4.52210009e-02 1.26600523e+01
      1.72759995e-01 4.41200007e-03 3.37963715e+01 -2.89769992e-02
      3.21954894e+00 7.58839995e-02 2.32024879e+01 5.39229546e+01
      7.38620013e-02 5.87584400e+00 1.73675001e-01 1.90676788e+02 217.
      1.13146603e+00 -8.48576009e-01 1.14219458e+03 -5.84564114e+00
      4.60489988e-02 1.39411148e+02 4.45606279e+00 -2.59781986e-01
      -7.56679010e+00 5.29805005e-01 1.89173767e+02 5.64749986e-02
      5.33911514e+00 5.37399994e-03 4.88729095e+00 1.16306400e+00
      4.25006819e+00 1.90036914e+04 8.57309997e-02 -1.68402001e-01
      2.10484524e+01 4.99910156e+03 7.00149983e-02 1.98263988e+01
      6.53065026e-01 1.59032497e+01 8.19839325e+01 1.03625998e-01
      7.27389976e-02 6.40493546e+01 -1.13694596e+00 0. 1.84345608e+01
      1.71054367e+02 2.21309471e+01 1.37704865e+02 8.05810019e-02
      4.11054897e+00 1.38369165e+03 -7.24170983e-01 166. 2.91837192e+00
      170. 9.05304785e+03 4.27550697e+00 2.86759995e-02 -1.11353695e+00
      -1.56517804e+00 8.85130997e+01 1.10290004e-02 8.37050974e-01
      3.26910591e+00 4.42873383e+01 3.71980057e+01 -3.09803993e-01
      -2.45849993e-02 3.69487964e+03 3.30900005e-03 255. 4.95514107e+00
      2.61034995e-01 7.16973007e-01 9.03900981e-01 1.43456475e+04
      2.61043053e+01 8.00308418e+00 -2.02818006e-01 2.45770969e+01
      4.54310000e-01 -3.71700004e-02 5.20479614e+02 -2.43185711e+00
      1.70723648e+01 4.48408432e+01 3.84528008e+01 7.73396301e+01
      7.03229380e+00 7.54429996e-02 1.65062225e+02 7.30799977e-03
      1.14930002e-02 1.12660423e+02 1.16664998e-01 8.52989018e-01
      5.19512510e+00 6.11662817e+00 2.43803768e+01 9.18747008e-01
      1.08988276e+01 6.78750086e+00 2.89809895e+00 2.54811554e+01
      4.62927246e+01 7.66667008e-01 4.58896599e+01 -6.70401990e-01
      8.55658627e+00 5.74509986e-02 -3.63247108e+00 4.31700014e-02
      7.31149986e-02 2.74630994e-01 8.21891022e+01 7.64762998e-01
      6.63313599e+01 9.61891022e+01 -2.15397999e-01 1.24256543e+03
      6.38731613e+01 5.73703957e+01 1.22309399e+00 -1.12415397e+00
      -3.46120000e-02 8.65841217e+01 2.42458668e+01 4.73339891e+00
      1.13074180e+04 -1.32493992e+01 4.81490009e-02 1.48557396e+01
      5.96221983e-01 6.58567011e-01 4.40086098e+01 -8.28011703e+00
      5.87642288e+00 4.80123138e+01 7.73079991e-02 3.37539101e+00
      1.23436451e+01 -1.78655997e-01 -1.85323998e-01 -4.80110012e-02
      2.55349994e-01 5.43354301e+01 4.04778004e-01 1.11396998e-01
      1.07024605e+02 -1.37288761e+01 6.92706146e+01 5.35318665e+02
      6.04409993e-01 8.46846676e+00 1.63874435e+02 4.47064304e+00
      2.20358295e+01 1.54529424e+04 7.85511780e+00 9.04641235e+02
      6.05051651e+01 1.58988848e+04 3.07568789e+00 1.15199399e+00
      1.25513451e+02 1.02573000e-01 2.05477190e+00 4.60586500e+00
      -4.53622013e-01 2.56364307e+01 1.51102006e-01 4.91680019e-02</_>
    <_>
      255. -5.95900393e+00 2.22542003e-01 1.59553006e-01 8.52033019e-01
      6.73292694e+01 -1.45796156e+01 3.38548112e+00 7.64086008e-01
      3.89469504e+00 2.03249995e-02 3.93790603e+00 4.54697996e-01
      4.72645998e-01 12. 1.31098002e-01 -3.54440403e+00 3.83721411e+03
      3.04899993e-03 2.03696167e+03 -8.65323007e-01 -3.92327011e-01
      -1.27690101e+00 1.18161287e+01 1.55862289e+02 6.75611973e-01
      1.67721003e-01 6.09697998e-01 4.16669995e-02 0. 3.22449990e-02
      1.39620911e+02 1.71821296e+00 3.08058906e+00 5.45152712e+00
      3.20788193e+01 3.51825371e+01 255. -2.68075800e+00 4.17957008e-01
      5.40440702e+00 1.19410598e+00 8.40381980e-01 1.87933388e+01
      7.39799023e-01 9.95487988e-01 1.08337998e-01 4.06499999e-03
      8.97989044e+01 -3.88166994e-01 5.81097603e+00 3.56257690e+03
      1.13069115e+01 208. -2.30487704e+00 8.29437017e-01 3.73606323e+03
      3.53189545e+02 2.24805996e-01 1.10161304e+00 3.04877996e-01
      -3.61135411e+00 1.47268204e+02 1.37556505e+00 1.58019568e+03
      4.54465985e-01 7.37340987e-01 1.70732006e-01 4.13821077e+00
      1.01629999e-02 7.22810984e-01 2.02362999e-01 3.40152907e+00
      1.83838999e+00 2.43900008e-02 9.09654522e+00 6.55803025e-01
      1.18943090e+01 6.79046106e+00 8.14912975e-01 9.50572205e+00
      6.37467194e+00 1.58830748e+01 1.73043228e+02 6.91649988e-02
      6.69299997e-03 2.28709602e+00 5.43187022e-01 -1.18756609e+01
      9.84206104e+00 8.12999997e-03 -3.69729012e-01 7.33455002e-01
      8.06559980e-01 9.58069980e-01 1.65756561e+02 7.48969987e-02
      6.91013622e+00 7.28000002e-03 5.35609007e-01 3.64776111e+00
      -1.64067805e+00 2.98779994e-01 8.42240989e-01 1.44134295e+00
      2.44339428e+01 2.95218492e+00 1.14244377e+02 1.11847267e+01
      -1.25505000e-01 -6.16246998e-01 2.99719691e+00 7.47999649e+01
      1.99218273e+01 -3.17948604e+00 1. 4.07384008e-01 1.69169647e+02
      7.22120032e-02 6.67209005e+00 7.92724013e-01 6.99699996e-03
      -1.27421904e+00 6.47735023e+00 0. 1.05907297e+00 1.71907761e+02
      7.00580031e-02 3.30776989e-01 6.98944931e+01 2.21443105e+00
      6.77300012e-03 3.72764206e+00 3.74361305e+01 6.09759986e-02
      2.32402124e+03 4.79674995e-01 6.67482018e-01 3.13237596e+00
      4.49215625e+03 201. 3.44880000e-02 4.45109415e+00 2.10218163e+01
      1.68109000e-01 8.30932975e-01 4.35331001e+01 4.29895014e-01
      2.07625002e-01 9.99680996e-01 4.78879996e-02 -1.73222995e+00
      1.13408998e-01 2.03300011e-03 2.26838398e+01 8.74278009e-01
      3.81075096e+00 1.16177998e-01 3.75538635e+01 6.03038254e+01
      6.40330017e-02 7.62324095e+00 1.44163996e-01 4.63212708e+02 201.
      1.61682296e+00 3.30900005e-03 5.14556580e+02 -5.27091503e+00
      -3.16899992e-03 1.44565125e+02 3.78909302e+00 2.37053704e+00
      -3.78700709e+00 5.07014990e-01 1.58321945e+02 8.07449967e-02
      7.49708080e+00 7.85300042e-03 9.33901024e+00 1.30748296e+00
      2.91617894e+00 6.42658740e+03 2.07137004e-01 -3.75764012e-01
      1.20518293e+01 3.92164673e+03 1.04832999e-01 1.29166698e+00
      3.92082989e-01 3.49593496e+00 7.30963287e+01 1.34967998e-01
      5.92610016e-02 1.21044823e+02 5.69379187e+00 26. 3.41415253e+01
      7.98458862e+01 4.56286087e+01 6.89915466e+01 1.30923003e-01
      1.06325779e+01 1.10832263e+03 3.96566987e-01 147. 3.51829290e+00
      183. 8.63719922e+03 3.52957892e+00 7.84949188e+01 3.94160008e+00
      -4.86474323e+00 1.01639130e+02 3.76019999e-02 7.93286979e-01
      1.53475609e+01 4.99166679e+01 3.32914810e+01 2.67621708e+00
      5.40940017e-02 2.21917407e+03 7.11400015e-03 194. -8.81748104e+00
      3.35294008e-01 4.66100015e-02 1.01670802e+00 9.83025977e+03
      4.95688744e+01 1.10020370e+01 -1.21440494e+00 6.51274719e+01
      3.83141994e-01 -8.65300000e-02 3.35341003e+02 -4.37769699e+00
      4.04369879e+00 9.44285812e+01 4.96321144e+01 6.57702866e+01
      6.69214487e+00 7.24200010e-02 1.68905380e+02 7.01500010e-03
      9.53499973e-03 1.37229614e+02 9.73370001e-02 9.66473997e-01
      -6.75817823e+00 5.43711090e+00 2.36421127e+02 8.47052765e+00
      9.06497860e+00 -3.61194491e+00 3.92725205e+00 8.44817066e+00
      1.13314255e+02 8.21718991e-01 1.03834290e+02 -8.82865012e-01
      1.70934963e+01 5.90060018e-02 -2.90162492e+00 6.24459982e-02
      5.97440004e-02 2.13409998e-02 6.97701645e+01 1.10367501e+00
      5.03215942e+01 9.45975647e+01 -9.93363023e-01 2.53488129e+02
      8.66274567e+01 9.11073990e+01 7.44929016e-01 -4.77597189e+00
      -2.46114001e-01 8.96144943e+01 3.53628044e+01 1.05264902e+00
      3.88815210e+03 -1.93543434e+01 7.63219967e-02 2.78271847e+01
      -2.60549992e-01 7.65200019e-01 6.12422447e+01 -1.00519352e+01
      7.29359198e+00 3.69142914e+01 5.69030009e-02 4.18162107e+00
      6.48827791e+00 2.08959997e-01 -1.87810007e-02 -4.52939004e-01
      -6.79902017e-01 1.10304977e+02 2.66930885e+01 9.14600026e-03
      9.54254074e+01 9.12325859e+00 3.16246319e+01 2.09162888e+02
      3.41463000e-01 6.24023104e+00 1.34058319e+02 -1.68890500e+00
      4.55210228e+01 1.64923926e+04 2.89837408e+00 1.01194763e+03
      4.02121773e+01 2.30187461e+04 3.62831712e+00 1.44428599e+00
      5.86538582e+01 3.04899993e-03 1.94512200e+00 1.99186996e-01
      -1.47590995e-01 2.60058804e+01 1.70426798e+00 3.33079994e-02</_>
    <_>
      255. -9.30232430e+00 6.65959001e-01 7.21378982e-01 8.26736987e-01
      4.30240005e-01 -4.85513115e+00 -5.77965021e-01 7.99260020e-01
      -1.88527985e+01 3.23499995e-03 3.16838098e+00 5.98787010e-01
      1.11854100e+00 12. 8.08699988e-03 2.53967438e+01 1.98396348e+04
      6.46999991e-03 6.00181055e+03 7.06975996e-01 -2.02062994e-01
      1.48474002e+00 1.56183443e+01 1.36962112e+02 6.88109994e-01
      8.76731992e-01 -1.03510998e-01 6.95500001e-02 3.23499995e-03
      -3.35819982e-02 2.43932678e+02 1.44175100e+00 3.74771905e+00
      5.20451498e+00 2.25076427e+01 9.18855286e+01 255. -1.65986204e+00
      1.55282199e+00 1.19706821e+01 5.93277884e+00 6.45115972e-01
      1.19920549e+01 2.45644003e-01 2.13707709e+00 1.91675007e-01
      1.61699997e-03 8.71099014e+01 -9.62471008e-01 2.58693752e+01
      4.66507861e+03 8.17617226e+00 205. 2.50973701e+00 6.38832986e-01
      2.47251523e+04 1.43809387e+02 2.29303002e-01 5.86506891e+00
      1.78889096e+00 5.03987598e+00 1.87482040e+02 1.38478696e+00
      3.38510767e+03 1.59221399e+00 5.01161993e-01 9.68847990e-01
      1.50826511e+01 1.11603998e-01 6.77235007e-01 1.25705004e-01
      4.18463993e+00 1.12023199e+00 3.07314008e-01 2.59114289e+00
      8.94662976e-01 2.42373753e+01 -1.07225752e+01 7.62356997e-01
      -5.39520884e+00 1.19695559e+01 -8.24605656e+00 9.78772049e+01
      1.28294006e-01 1.26930000e-02 -1.93361294e+00 3.90597999e-01
      2.25611997e+00 1.33253460e+01 4.85200016e-03 -6.55809999e-01
      1.57717597e+00 -3.08842993e+00 1.13054502e+00 9.72849274e+01
      1.28759995e-01 1.20181742e+01 1.27339996e-02 1.19648397e+00
      5.62949181e+00 5.78911006e-01 7.74755001e-01 7.14904010e-01
      5.34083009e-01 2.22608604e+01 -1.04818935e+01 5.79691429e+01
      -3.78879204e+01 -1.00572896e+00 4.25964499e+00 3.43299603e+00
      8.61348495e+01 3.56801453e+01 -4.13566589e+00 1. 2.18312994e-01
      1.12723061e+02 1.16616003e-01 1.08497219e+01 8.91205013e-01
      1.15329996e-02 -2.37206292e+00 1.08110390e+01 2. 1.24867296e+00
      1.13589775e+02 1.15933999e-01 2.46104002e-01 8.68580322e+01
      8.38482189e+00 1.14280004e-02 2.95991993e+00 1.17133999e+01
      1.09112673e+01 5.01483008e+03 2.26440001e-02 1.99996901e+00
      1.86684000e+00 2.58811084e+03 195. 4.38859984e-02 4.82281017e+00
      -1.80941796e+00 -5.47701001e-01 6.96794987e-01 1.19665270e+01
      1.53828394e+00 4.38371003e-01 1.60806999e-01 2.44910009e-02
      -1.75410995e+01 5.35739996e-02 2.76582986e-01 2.85900345e+01
      -1.30178005e-01 4.79946280e+00 3.15739997e-02 2.04412384e+01
      1.06973869e+02 9.49719995e-02 2.98933911e+00 8.49800035e-02
      7.93040771e+02 189. 1.40077400e+00 -1.89086005e-01 8.17390076e+02
      9.21464980e-01 1.47174001e-01 1.54534348e+02 5.69760513e+00
      1.23687601e+00 -1.81068859e+01 3.82319987e-01 1.74987167e+02
      6.76349998e-02 6.14669085e+00 6.73400005e-03 -3.58674097e+00
      6.93340003e-01 4.67467117e+00 7.56058887e+03 8.09959993e-02
      7.65890032e-02 1.31287813e+01 5.07235791e+03 2.86180004e-02
      3.72658801e+00 9.82057989e-01 1.92475700e+00 7.97182007e+01
      1.63351998e-01 9.62760001e-02 6.05309868e+01 6.36004877e+00 30.
      5.17866936e+01 1.06893188e+02 1.74331646e+01 1.04960602e+02
      6.25189990e-02 -5.90844393e+00 2.43527393e+03 2.82135010e-01 152.
      1.56439037e+01 209. 8.73075000e+03 4.87623310e+00 2.58789994e-02
      1.87326998e-01 4.06389982e-02 2.82608719e+01 5.60120296e+00
      6.69394016e-01 2.05641632e+01 6.22230101e+00 4.93484955e+01
      8.16975403e+00 -4.21219990e-02 1.12725319e+02 3.23499995e-03 179.
      -6.23830974e-01 6.71405971e-01 4.36765999e-01 -2.11769998e-01
      8.55947461e+03 4.72831459e+01 7.78016615e+00 -7.39337981e-01
      1.62145061e+01 6.43203974e-01 -1.24847002e-01 4.12400781e+03
      2.27348208e+00 2.42619999e-02 1.77569351e+01 3.53653793e+01
      1.93271427e+01 1.04309111e+01 1.11504003e-01 1.19220490e+02
      1.09660001e-02 8.97900015e-03 1.44075836e+02 9.19520035e-02
      9.68016028e-01 8.29527092e+00 3.31440496e+00 5.46471863e+01
      9.29220676e+00 8.62715816e+00 3.38426900e+00 3.56386089e+00
      2.15750656e+01 1.77752914e+01 6.89750016e-01 2.45027046e+01
      -4.48018408e+00 2.84815445e+01 7.97799975e-02 -4.68702602e+00
      1.08420998e-01 9.52299982e-02 7.44019970e-02 8.81519928e+01
      2.29297304e+00 1.92306023e+01 6.72377930e+01 -6.20675027e-01
      3.69457458e+02 7.88297501e+01 6.49390259e+01 1.05018997e+00
      6.86794376e+00 6.18587971e-01 9.05812149e+01 1.73017826e+01
      -9.90354347e+00 4.81864209e+03 2.27680855e+01 6.09889999e-02
      3.43477554e+01 -1.43048501e+00 6.56448007e-01 6.06200027e+01
      1.38942318e+01 4.17855120e+00 1.32081852e+01 8.58469978e-02
      5.68806982e+00 3.50944443e+01 7.15934992e-01 7.91647971e-01
      1.54990004e-02 2.48920005e-02 2.47828865e+01 4.42629318e+01 0.
      9.42931137e+01 9.54840279e+00 1.15692968e+01 5.94968681e+01
      7.89975052e+01 7.87514687e+00 1.26088638e+02 -1.90797102e+00
      4.10581856e+01 6.91638574e+03 1.53446770e+01 3.50105298e+03
      1.43113918e+01 1.29539619e+04 4.30550003e+00 1.79150605e+00
      1.70313892e+01 8.57240036e-02 2.11399698e+00 1.72370853e+01
      6.93720996e-01 3.20979462e+01 3.12328100e+00 2.40579993e-02</_>
    <_>
      232. 1.87460399e+00 2.05789998e-01 3.43213701e+00 1.45899200e+00
      3.25897026e+01 -6.92859602e+00 -1.76630402e+00 6.41728997e-01
      1.10726798e+00 7.64431000e-01 5.18051577e+00 2.02050999e-01
      1.69439602e+00 38. 1.50390024e+01 -5.27589836e+01 4.90615088e+03
      2.18409002e-01 7.20685938e+03 1.71959996e-02 1.23708002e-01
      7.81171024e-01 2.56624107e+01 2.01697342e+02 6.45729005e-01
      3.40000004e-01 6.09782994e-01 0. 0. 1.01699997e-02 6.58559326e+02
      1.11267102e+00 4.75331593e+00 5.52174520e+00 -7.37400198e+00
      3.35745575e+02 255. 1.35575995e-01 8.67633998e-01 -9.74855006e-01
      4.05615985e-01 7.52389014e-01 3.27877884e+01 1.24437106e+00
      2.06478998e-01 3.96540016e-02 6.24019988e-02 9.35131378e+01
      -3.03590000e-02 1.56009998e-02 3.63115381e+03 1.91419659e+01 189.
      7.54058003e-01 7.39978015e-01 5.29040430e+03 1.07503918e+03
      1.86972594e+00 1.66039543e+01 6.24019988e-02 -1.28819004e-01
      1.23594849e+02 1.45402801e+00 5.33314600e+03 9.68003988e-01
      2.82377005e-01 1.17316694e+01 1.76287103e+00 5.92823982e-01
      6.02725029e-01 5.41490018e-02 -6.57000005e-01 -2.59020901e+00
      4.68019992e-02 2.49453983e+01 1.36688304e+00 3.57254291e+00
      2.62126207e+00 6.44982994e-01 2.39808998e+01 1.27624617e+01
      4.96912384e+00 8.73670883e+01 1.36562005e-01 1.35120004e-02
      6.67074978e-01 -1.17164001e-01 -1.20248270e+01 -7.86606014e-01
      4.68019992e-02 -5.39847016e-01 1.59789598e+00 -5.68697989e-01
      2.43124390e+00 8.83550262e+01 1.35784999e-01 1.26891184e+01
      1.34330001e-02 1.82731903e+00 4.27300596e+00 3.87884212e+00 0.
      7.72687972e-01 9.40801978e-01 3.08112316e+01 2.16118312e+00
      6.56999207e+02 8.10927868e+00 -7.69805014e-01 -2.51330007e-02
      3.33432508e+00 9.14470215e+01 1.48090057e+02 -2.69203806e+00 5.
      2.37333000e-01 9.17868576e+01 1.33084998e-01 1.24305220e+01
      6.55698001e-01 1.31620001e-02 -1.59362965e+01 1.27626247e+01 0.
      1.79858100e+00 8.73385239e+01 1.36583999e-01 1.35175005e-01
      9.19431839e+01 2.60998440e+01 1.35159995e-02 9.01716137e+00
      1.07785263e+01 9.91107635e+01 1.67774988e+03 6.22464895e+00
      3.57939005e-01 4.42090702e+00 1.66928965e+04 214. 3.43939997e-02
      5.61473799e+00 1.35118496e+00 -5.87665021e-01 7.48937011e-01
      1.05835543e+01 1.11946595e+00 7.23349974e-02 4.17023003e-01
      3.58019993e-02 8.47582436e+00 4.52239998e-02 1.09204002e-01
      4.03651237e+01 -7.76470006e-02 4.97669792e+00 1.05650000e-01
      8.68954754e+00 2.19121170e+02 9.58800018e-02 9.07130623e+00
      7.16169998e-02 2.87367584e+02 205. 1.07234299e+00 5.88038027e-01
      1.62934302e+03 -1.58620729e+01 6.06006026e-01 1.41576752e+02
      4.39520407e+00 5.99729490e+00 -4.57290001e-02 1.47141993e-01
      8.17326508e+01 1.40993997e-01 1.31827803e+01 1.39610004e-02
      4.54044294e+00 1.65754700e+00 3.84149504e+00 1.95904570e+04
      1.33307993e-01 -1.57896996e-01 1.98751945e+01 1.90753828e+04
      1.08162001e-01 1.13104525e+01 1.34600103e+00 3.34789391e+01
      9.01880722e+01 1.13511004e-01 9.63639989e-02 4.44629089e+02
      5.73283970e-01 22. 1.24147949e+01 1.59723711e+01 1.13322678e+01
      1.00209579e+01 1.30756006e-01 -5.66241503e+00 1.66577356e+03
      -3.59535009e-01 52. 1.09516382e+01 169. 7.58156299e+03
      4.06884909e+00 4.36973495e+01 5.56321979e-01 -3.05316001e-01
      1.59498568e+01 9.36039984e-02 6.09427989e-01 1.15288610e+01
      2.48205929e+01 4.08138885e+01 -4.18120480e+00 3.39620002e-02
      5.50942578e+03 4.68019992e-02 83. 1.00123444e+01 1.74133003e-01
      -1.23455003e-01 8.03360999e-01 7.62206348e+03 1.59744282e+01
      2.10862293e+01 -4.41704005e-01 1.06479521e+01 1.29990602e+00
      3.54649983e-02 1.18701526e+03 6.19457197e+00 4.09360352e+01
      1.58353558e+01 2.85179405e+01 1.00444098e+01 1.31582804e+01
      1.40736997e-01 8.20602341e+01 1.39349997e-02 1.39610004e-02
      8.17306137e+01 1.40995994e-01 7.11758971e-01 -8.17920017e+00
      2.95806003e+00 2.80515167e+02 8.61154366e+00 1.31832094e+01
      -1.37476897e+00 3.10654092e+00 6.70826817e+00 1.58312216e+01
      6.58227026e-01 1.59913921e+01 -6.62419021e-01 5.55382204e+00
      9.87220034e-02 1.29807768e+01 9.88610014e-02 9.47280005e-02
      4.68019992e-02 9.17695465e+01 2.24865890e+00 1.59928331e+01
      3.87541351e+01 -3.62365007e-01 9.73746460e+02 1.33787521e+02
      1.59672623e+01 8.68215024e-01 -2.41653299e+00 -1.04824400e+00
      9.28239288e+01 7.05928268e+01 -1.06841259e+01 1.57345645e+04
      -4.18131599e+01 3.22009996e-02 1.00208292e+01 -8.22188020e-01
      6.54987991e-01 1.00270281e+01 3.87492609e+00 4.55463982e+00
      1.00052557e+01 9.67279971e-02 3.08183289e+00 4.84039402e+00
      1.85721993e-01 -9.21119988e-01 -9.55883026e-01 3.28819990e-01
      1.59369383e+01 2.03900166e+01 1.18564701e+00 9.38659821e+01
      -5.64095783e+00 1.00105114e+01 8.00070923e+02 1.15444601e+00
      8.06126022e+00 1.41114670e+02 1.54090297e+00 4.95923576e+01
      7.73015283e+03 1.22620897e+01 3.29783032e+03 1.57979462e+02
      2.22481592e+03 -6.00830889e+00 1.88582897e+00 1.59856672e+01
      6.55225992e-01 5.28861189e+00 6.24019988e-02 -4.87358004e-01
      -1.06313454e+02 2.04368210e+00 2.01309994e-02</_>
    <_>
      203. -5.24408579e+00 2.52806991e-01 7.60279968e-02 7.22599983e-01
      5.01837349e+01 -7.78571701e+00 3.35755706e+00 7.68197000e-01
      -5.30071402e+00 3.80139984e-02 3.45524192e+00 6.53421998e-01
      7.95673013e-01 16. 4.86834383e+00 1.11083384e+01 1.98463379e+03
      3.29460017e-02 5.63000293e+03 -2.75582999e-01 -2.76827991e-01
      1.31522722e+01 1.93532085e+01 1.57307236e+02 6.64394021e-01
      9.10140991e-01 3.08648801e+00 0. 0. 3.25100007e-03 3.74546631e+02
      1.56385303e+00 4.21866512e+00 5.51413298e+00 3.62451196e+00
      1.41840363e+02 255. 4.41844177e+00 8.25926006e-01 -4.76968908e+00
      8.64188015e-01 7.75653005e-01 1.44417067e+01 8.29457998e-01
      3.23056889e+00 1.55100003e-01 5.06900018e-03 9.14174423e+01
      7.69146025e-01 1.23393898e+01 1.94619751e+03 4.17648697e+00 188.
      1.22525895e+00 7.66587973e-01 2.13823804e+03 2.08562912e+02
      -1.95309496e+00 -1.51070905e+00 5.82880005e-02 1.09808996e-01
      1.31719955e+02 1.43792200e+00 1.01279340e+03 8.66723001e-01
      3.83507997e-01 2.35688001e-01 5.40307713e+00 2.73701996e-01
      7.01798975e-01 9.48660001e-02 -9.57629979e-02 2.52512288e+00
      8.10969993e-02 1.70886230e+01 1.20176399e+00 1.75853424e+01
      -7.84652281e+00 6.94307983e-01 -1.83234406e+00 1.05281496e+01
      1.71598399e+00 1.17082527e+02 1.13186002e-01 1.11630000e-02
      -3.11607003e-01 -1.92412004e-01 2.69425893e+00 2.18147964e+01
      1.01370001e-02 -3.48271996e-01 9.55569029e-01 -1.40177596e+00
      9.14574027e-01 1.10149277e+02 1.18639998e-01 1.10469713e+01
      1.17159998e-02 1.11144400e+00 3.94358993e+00 -3.91060002e-02 0.
      7.72764027e-01 1.53566301e+00 5.09389496e+00 -6.59308290e+00
      4.53541336e+01 1.79437981e+01 6.76526010e-01 -4.67900991e-01
      3.56635308e+00 7.64118652e+01 4.28010292e+01 -7.20768988e-01 1.
      2.15544999e-01 1.14016815e+02 1.15598001e-01 1.07587662e+01
      7.65152991e-01 1.14050005e-02 -4.68803692e+00 1.01696730e+01 1.
      1.04096103e+00 1.21793282e+02 1.09480001e-01 3.25928003e-01
      7.94815369e+01 9.15127087e+00 1.08009996e-02 4.86580998e-01
      1.49716682e+01 3.97881001e-01 9.83543579e+02 2.25550994e-01
      5.94649971e-01 3.39069390e+00 3.59963501e+03 205. 3.35199982e-02
      4.53292608e+00 3.52543497e+00 -1.25596297e+00 7.92688012e-01
      1.80705528e+01 6.82738006e-01 1.68758005e-01 4.33789015e-01
      2.77069993e-02 -7.50951385e+00 4.55490015e-02 7.60299992e-03
      2.43490353e+01 -3.78293008e-01 4.91653919e+00 1.34423003e-01
      4.04343758e+01 1.31659546e+02 9.08140019e-02 1.14954853e+01
      1.92827001e-01 6.50388611e+02 203. 2.16960406e+00 -8.22160020e-02
      5.92875488e+02 -1.68841600e+00 7.73015976e-01 1.59802856e+02
      4.09871483e+00 -4.84963000e-01 -2.64763808e+00 5.02017975e-01
      1.09118584e+02 1.19451001e-01 1.11616039e+01 1.17739998e-02
      -3.14800406e+00 1.16319096e+00 3.45333099e+00 4.70590820e+03
      1.68985993e-01 -8.25610012e-02 4.93575592e+01 3.05571802e+03
      1.17591999e-01 5.01787007e-01 7.80893028e-01 4.36909199e+00
      8.07940216e+01 1.06905997e-01 8.74949992e-02 1.73985962e+02
      -4.58137006e-01 18. 3.12713184e+01 1.98283920e+01 1.67366009e+01
      1.62773533e+01 1.32847995e-01 -5.77337694e+00 1.81043945e+03
      9.78914022e-01 152. 6.68288612e+00 211. 8.53943359e+03
      3.91009593e+00 2.09077778e+01 -3.96245986e-01 -5.19458580e+00
      1.66283627e+01 1.19111001e-01 6.74335003e-01 4.17395306e+00
      2.35484924e+01 4.25492592e+01 -1.00707722e+01 1.75950006e-02
      3.53270337e+03 1.52059998e-02 139. -7.19878006e+00 3.72548014e-01
      -8.73054981e-01 -1.23687997e-01 7.83227930e+03 2.12342548e+01
      1.31903744e+01 -1.52967501e+00 2.03773804e+01 6.35450006e-01
      -1.53280003e-02 2.44193506e+03 -2.23666692e+00 3.31052475e+01
      2.16355858e+01 2.87412243e+01 1.19312983e+01 1.22510576e+01
      1.31061003e-01 9.43600235e+01 1.29530001e-02 1.18119996e-02
      1.08715950e+02 1.19768001e-01 9.96219993e-01 1.48203599e+00
      6.54839182e+00 5.61456184e+01 1.14549303e+00 1.11717081e+01
      4.96311903e+00 3.80373502e+00 2.75627861e+01 2.45698166e+01
      7.59483993e-01 2.25831871e+01 6.37628973e-01 1.79249344e+01
      9.25849974e-02 -2.09931707e+00 8.52470025e-02 8.82410035e-02
      2.28080004e-02 8.17512894e+01 1.08795404e+00 1.70602055e+01
      8.22525940e+01 -4.78190005e-01 5.36269714e+02 7.49783325e+01
      1.61390820e+01 2.37070894e+00 5.81650019e-01 2.77087003e-01
      9.37710266e+01 2.39793205e+01 -9.56483006e-01 2.19212012e+03
      2.46861629e+01 6.67989999e-02 1.58240290e+01 8.16357970e-01
      7.14233994e-01 1.09400806e+01 -8.49958003e-01 5.06785679e+00
      1.25462646e+01 8.87250006e-02 6.45436478e+00 5.75865316e+00
      4.37115997e-01 7.00106978e-01 -8.29720020e-01 -3.44000012e-01
      2.69751358e+01 6.24623032e+01 0. 9.47734833e+01 8.05954056e+01
      1.06043129e+01 1.64965668e+02 9.90902007e-01 9.42431259e+00
      1.13243317e+02 9.45583999e-01 2.33998337e+01 9.05147168e+03
      1.36344051e+01 2.07248120e+03 4.68823700e+01 1.13568936e+04
      2.65866208e+00 1.09402096e+00 1.62093353e+01 7.60299992e-03
      9.14113426e+00 2.88907504e+00 4.94253993e-01 -2.14723492e+00 0.
      4.42509986e-02</_>
    <_>
      255. 1.68653545e+01 -9.33764994e-01 4.17036390e+00 4.26060486e+00
      2.04968948e+01 -2.66495304e+01 1.47470903e+00 4.64670986e-01
      -7.33658016e-01 2.57320309e+00 6.23161602e+00 9.65399966e-02
      2.87732005e+00 47. 1.38420591e+01 8.66487122e+01 9.26898145e+03
      3.54925007e-01 9.60001855e+03 1.14685798e+00 -7.82670006e-02
      9.49666691e+00 3.30985832e+01 1.55291931e+02 4.42283988e-01
      -3.94184208e+00 -6.63100004e-01 0. 0. -1.10537000e-01
      1.09551624e+03 1.41413701e+00 5.70084906e+00 6.52884197e+00
      6.02295303e+00 8.51585327e+02 243. -3.85227895e+00 2.73828006e+00
      -2.58923697e+00 8.87310982e-01 5.23505986e-01 4.50112076e+01
      3.50666809e+00 4.59520578e+00 1.71089992e-02 5.32387018e-01
      9.35000000e+01 -3.34282011e-01 4.52528811e+00 1.24415938e+04
      1.75687675e+01 155. 2.95595193e+00 4.44267005e-01 2.25761758e+04
      2.02600879e+03 1.39951897e+00 -8.97831976e-01 4.43655998e-01
      -3.59654009e-01 1.41099380e+02 4.23107290e+00 1.80682935e+03
      4.37821722e+00 1.46377996e-01 1.59716105e+00 4.70275116e+00
      7.98579991e-01 4.71112996e-01 2.83359997e-02 1.68571103e+00
      6.04611683e+00 0. 1.81898842e+01 3.00154495e+00 1.65039921e+01
      3.94883704e+00 5.11101007e-01 1.52750731e+01 1.32074347e+01
      1.91836433e+01 8.14000015e+01 1.41256005e-01 1.39870001e-02
      -3.28410792e+00 -2.22490001e-02 -1.20871582e+01 -1.12369413e+01
      6.21118009e-01 6.46400005e-02 5.07634497e+00 -2.28654194e+00
      3.81638598e+00 8.14000015e+01 1.41256005e-01 1.32074347e+01
      1.39870001e-02 3.35171700e+00 5.66655922e+00 -6.08139801e+00 0.
      5.32312989e-01 6.24711990e-01 2.08518181e+01 -2.75618792e+00
      1.49600696e+03 -1.11268787e+01 -3.87295294e+00 -6.20634019e-01
      2.53612804e+00 9.35000000e+01 -5.02051201e+01 -1.41976404e+00 30.
      8.54590014e-02 8.14000015e+01 1.41256005e-01 1.32074347e+01
      4.93595004e-01 1.39870001e-02 -5.26172996e-01 1.32074347e+01 14.
      3.97307396e+00 8.14000015e+01 1.41256005e-01 6.55369982e-02
      9.35000000e+01 8.87309983e-02 1.39870001e-02 1.58828754e+01 10. 0.
      1.50768721e+04 1.00266190e+01 1.08263999e-01 5.94025612e+00
      1.03696572e+04 100. 1.39560001e-02 6.51491785e+00 2.61832581e+01
      -1.04453599e+00 4.75731999e-01 10. 3.95516992e+00 2.46420000e-02
      1.15964003e-01 1.91450007e-02 -1.33154595e+00 1.54750003e-02 0.
      5.63699570e+01 -4.07550007e-01 6.31421518e+00 2.79699992e-02
      2.66193428e+01 1.36048108e+03 9.90220010e-02 2.65775490e+00
      1.03881001e-01 2.90908667e+03 92. 1.19990003e+00 -1.34321404e+00
      3.17757202e+03 1.19907808e+01 6.77074015e-01 1.09235138e+02
      6.38378620e+00 -2.71589994e-01 -1.63771003e-01 1.30160004e-01
      8.14000015e+01 1.41256005e-01 1.32074347e+01 1.39870001e-02
      1.88860512e+01 4.05403519e+00 5.99069786e+00 5.23435508e+04
      2.14259997e-02 3.23125005e-01 8.87310982e-01 7.04418164e+03
      1.48970000e-02 9.22803879e+00 2.63769698e+00 5.50133085e+00
      9.35000000e+01 6.90070018e-02 9.90220010e-02 1.65715295e+03
      6.07287407e+00 79. 5.58817177e+01 16. 10. 10. 2.37329993e-02
      -5.37638712e+00 1.18957629e+03 -1.85629201e+00 112. 6.21118009e-01
      133. 7.61089990e+03 5.88140488e+00 1.84560776e+01 6.95592308e+00
      -7.12441981e-01 16. 6.38864183e+00 4.65876997e-01 2.87488918e+01
      1.95208511e+01 3.44902344e+01 1.63450146e+01 -5.74660003e-02
      9.08026563e+03 7.09849000e-01 91. -5.76196015e-01 8.91430005e-02
      1.41192198e+00 5.40984988e-01 7.61089990e+03 16. 4.07081451e+01
      -1.04152799e+00 10. 3.92295408e+00 3.67987990e-01 1.31518201e+03
      3.46396399e+00 1.75687675e+01 16. 2.28926353e+01 10.
      1.32074347e+01 1.41256005e-01 8.14000015e+01 1.39870001e-02
      1.39870001e-02 8.14000015e+01 1.41256005e-01 9.37747002e-01
      8.13768387e+00 3.00725603e+00 5.72448959e+01 2.02307014e+01
      1.32074347e+01 2.49538207e+00 2.33012104e+00 1.28660164e+01 16.
      5.21507025e-01 16. 7.14443982e-01 0. 9.90220010e-02 2.56907997e+01
      9.90220010e-02 9.90220010e-02 0. 9.35000000e+01 3.43287706e+00 16.
      9.34356689e+01 -1.34883001e-01 1.95493713e+03 9.65501328e+01 16.
      2.25151002e-01 -6.60542393e+00 -8.70721996e-01 9.35000000e+01
      2.46672573e+01 -1.87454200e+00 2.35450508e+04 -1.83176117e+01
      1.43109998e-02 10. -6.88924015e-01 4.30083990e-01 10.
      4.76491594e+00 4.00161982e+00 10. 9.90220010e-02 2.60008788e+00
      3.76830006e+00 3.09443092e+00 -2.77792990e-01 -5.94703019e-01
      -1.99571800e+00 16. 2.61756878e+01 0. 9.35000000e+01
      2.07726974e+01 10. 2.26789233e+03 1.32209406e+01 8.06036282e+00
      1.04894409e+02 1.65994000e+00 4.05029678e+01 7.61089990e+03
      3.72670794e+00 1.48400513e+03 1.98750415e+03 5.85196045e+02
      -4.14124823e+00 3.77329206e+00 16. 2.39574099e+00 1.33984032e+01
      0. 2.84235001e-01 -9.65648346e+01 2.66193002e-01 1.81350000e-02</_>
    <_>
      255. -1.50936699e+00 1.72530994e-01 5.19881010e-01 1.76350701e+00
      3.96553383e+01 5.68288803e+00 -4.89331722e+00 6.49173021e-01
      -1.98498094e+00 4.81399987e-03 4.94647312e+00 2.02138007e-01
      8.22247982e-01 0. 1.11774330e+01 8.82334900e+01 3.72527490e+03
      4.81370017e-02 6.09156299e+03 2.61390004e-02 -1.54229999e-02
      1.92515302e+00 2.10128860e+01 1.96264511e+02 6.08096004e-01
      1.93612194e+00 -1.03556299e+00 0. 0. -1.41260000e-02
      4.41541351e+02 1.40527403e+00 4.54964399e+00 5.86284113e+00
      -3.27717996e+00 1.76915237e+02 255. -4.33094120e+00 7.44247019e-01
      1.62729704e+00 1.49224997e-01 7.71575987e-01 3.02231941e+01
      1.20040596e+00 -4.82066011e+00 5.68040013e-02 3.85099985e-02
      8.97958527e+01 -3.94466013e-01 9.62740034e-02 3.91691113e+03
      3.24925399e+00 192. 9.61835980e-01 7.64903009e-01 3.75034155e+03
      9.13441467e+02 -4.30873990e-01 3.94621801e+00 1.92549992e-02
      -1.23042002e-01 1.26503319e+02 2.29442692e+00 1.58016711e+03
      7.78030992e-01 3.00868005e-01 6.73919991e-02 7.07615018e-01
      2.93635994e-01 6.91606998e-01 7.17670023e-02 -3.91936988e-01
      8.82176995e-01 5.39134979e-01 9.45893860e+00 1.59604704e+00
      2.51275611e+00 1.45850205e+00 6.45582020e-01 -4.08785200e+00
      1.19367208e+01 -4.58008194e+00 9.84580383e+01 1.27837002e-01
      1.26299998e-02 -1.24247998e-01 -5.39503992e-01 3.37761307e+00
      1.70363827e+01 4.13978994e-01 -4.61097002e-01 7.53857970e-01
      2.26337999e-01 9.45089996e-01 9.59859848e+01 1.29782006e-01
      1.21202497e+01 1.28269996e-02 9.80944991e-01 4.09757280e+00
      -3.25895000e+00 3.36959995e-02 7.68769026e-01 1.66239095e+00
      2.42514687e+01 -6.29324484e+00 6.90657776e+02 1.17720327e+01
      9.45586026e-01 -2.58862591e+00 2.48573208e+00 8.98701782e+01
      8.89999008e+01 -2.45114493e+00 0. 3.02776009e-01 9.75549545e+01
      1.28547996e-01 1.20046740e+01 6.96268976e-01 1.27010001e-02
      -2.89094090e+00 1.23655081e+01 0. 1.19495404e+00 9.26539001e+01
      1.32403001e-01 2.13916004e-01 8.93888855e+01 1.37623949e+01
      1.30930003e-02 8.18329975e-02 1.15410080e+01 1.94425716e+01
      2.05714136e+03 9.62700043e-03 3.90554994e-01 4.13223886e+00
      8.83417773e+03 196. 2.55430005e-02 4.60703993e+00 2.73688736e+01
      8.30583990e-01 7.61123002e-01 1.19306021e+01 7.45262027e-01
      9.37059969e-02 5.18185019e-01 4.05829996e-02 1.60588760e+01
      8.15000013e-02 0. 3.24238663e+01 -1.51188999e-01 4.30077600e+00
      8.52060020e-02 2.43862514e+01 1.95083359e+02 9.27790031e-02
      8.83489513e+00 1.63623005e-01 6.33536194e+02 193. 2.57666993e+00
      -8.36371005e-01 1.05130701e+03 1.08770096e+00 -1.07607102e+00
      1.59644165e+02 4.18170595e+00 5.99624777e+00 -1.44722605e+00
      4.90666986e-01 8.49387817e+01 1.38472006e-01 1.29455395e+01
      1.37050003e-02 4.69830179e+00 1.04227698e+00 3.76179004e+00
      2.68304248e+03 1.20320998e-01 3.27706009e-01 3.64927292e+01
      1.70221948e+03 8.01509991e-02 1.64147496e+00 7.35696018e-01
      2.78713779e+01 8.97803345e+01 9.78500023e-02 9.15630013e-02
      3.28510651e+02 -5.93329477e+00 0. 4.65376320e+01 1.58174572e+01
      1.18364887e+01 1.02658949e+01 8.79869983e-02 6.94046688e+00
      1.08611328e+03 -7.47940019e-02 77. 2.03475494e+01 179.
      7.70924609e+03 4.08865976e+00 3.83604507e+01 6.49411023e-01
      -1.48467195e+00 1.58697166e+01 1.78106993e-01 7.14784980e-01
      1.01713676e+01 4.23606008e-01 3.29562340e+01 -1.07617044e+01
      -1.08270003e-02 4.78018457e+03 2.40690000e-02 112. 1.27016134e+01
      3.46991003e-01 3.51278991e-01 -1.71023995e-01 7.46522168e+03
      1.58746243e+01 1.81248627e+01 1.85926795e+00 1.14763994e+01
      6.41337991e-01 -1.89759992e-02 3.91303253e+02 -4.19865608e+00
      3.74939842e+01 1.69124432e+01 4.19803581e+01 1.01869431e+01
      1.30401096e+01 1.39473006e-01 8.36659622e+01 1.38069997e-02
      1.37639996e-02 8.41952667e+01 1.39056996e-01 9.97087002e-01
      -3.14851093e+00 6.42122602e+00 1.37441589e+02 5.23250198e+00
      1.30035505e+01 2.15107012e+00 6.28831577e+00 6.81188049e+01
      1.69590302e+01 7.32975006e-01 1.69462814e+01 7.72728777e+00
      2.73466835e+01 9.78989974e-02 -2.58061504e+00 9.73000005e-02
      9.18160006e-02 9.14599970e-02 8.98253021e+01 1.34360397e+00
      1.59218225e+01 5.50253677e+01 7.53282011e-01 3.76238678e+02
      7.35387497e+01 1.58922539e+01 1.23026502e+00 -8.53680897e+00
      -4.88685995e-01 9.31891861e+01 4.07239819e+00 9.76062000e-01
      1.17012256e+04 1.60944000e-01 7.96630010e-02 1.02124758e+01
      -2.50508994e-01 7.58509994e-01 1.01742191e+01 -1.66707172e+01
      4.68753481e+00 1.04182911e+01 9.44570005e-02 4.47216177e+00
      4.96786022e+00 -7.26760030e-02 -5.44591010e-01 -2.93855011e-01
      2.07320005e-01 1.69635544e+01 9.20381165e+00 1.92548007e-01
      9.41849747e+01 -3.77545810e+00 1.04255648e+01 1.93899338e+02
      1.36228001e+00 8.00615215e+00 8.17711563e+01 -2.81827003e-01
      3.82483444e+01 1.02433770e+04 1.37286987e+01 5.30576172e+02
      1.31671982e+02 7.41531689e+03 5.33671808e+00 1.67672002e+00
      1.58109159e+01 1.05902001e-01 4.92153664e+01 4.62116003e-01
      1.70692503e+00 3.83598137e+01 2.35872000e-01 4.62029986e-02</_>
    <_>
      215. -1.49886990e+01 -1.45492002e-01 6.81999996e-02 1.85928595e+00
      1.73568745e+01 -1.88093739e+01 9.54768002e-01 6.40502989e-01
      2.27785568e+01 7.57799996e-03 4.91192579e+00 2.38832995e-01
      8.55084002e-01 45. 1.51559999e-02 -1.07562380e+01 6.40682373e+03
      3.03109996e-02 7.12444336e+03 -7.55949989e-02 -2.79693991e-01
      -4.81857586e+00 2.64395218e+01 1.82564362e+02 6.44752026e-01
      -3.22807997e-01 1.11907899e+00 0. 3.23949504e+00 -1.56129999e-02
      6.99048340e+02 1.05998194e+00 5.03405380e+00 5.84091282e+00
      4.01779633e+01 3.96453552e+02 255. -1.08666098e+00 9.09641981e-01
      1.76630002e-02 4.16777015e-01 7.18029022e-01 2.37592106e+01
      1.12793398e+00 -1.39605403e+00 5.42679988e-02 7.57799996e-03
      9.27936478e+01 7.62799988e-03 9.61239719e+00 7.34766260e+03
      1.20979052e+01 208. 2.66398013e-01 7.15282023e-01 5.91053809e+03
      5.64500122e+02 -3.26462007e+00 6.64933980e-01 1.89440008e-02
      4.55120420e+00 1.62059143e+02 1.75869799e+00 1.26990002e+03
      9.03096974e-01 2.32291996e-01 3.95369987e+01 2.24680805e+00
      2.87954986e-01 6.57142997e-01 5.06930016e-02 3.07740986e-01
      -1.64029098e+00 1.44735301e+00 1.69135761e+01 1.80138505e+00
      6.33501291e+00 -1.72732198e+00 6.25492990e-01 5.93949699e+00
      1.24023571e+01 3.85728407e+00 9.22115555e+01 1.32751003e-01
      1.31259998e-02 2.38347793e+00 -1.56246006e-01 3.07987461e+01
      9.13107872e+00 2.00810999e-01 -4.56450999e-01 1.80139506e+00
      4.81400996e-01 1.73851299e+00 9.10531158e+01 1.33662000e-01
      1.24883394e+01 1.32189998e-02 8.83711994e-01 4.80591106e+00
      -1.80529997e-01 0. 7.05492973e-01 1.53344798e+00 4.40685043e+01
      9.83162594e+00 3.11335968e+02 -1.86576366e+01 6.95186019e-01
      -5.59180006e-02 2.29290891e+00 9.18731995e+01 4.01886253e+01
      -2.33427525e+01 2. 2.74450004e-01 8.92678757e+01 1.35067001e-01
      1.26235619e+01 7.36289978e-01 1.33600002e-02 -2.71405506e+00
      1.28258200e+01 2. 1.45746303e+00 8.65019684e+01 1.37243003e-01
      2.47259006e-01 9.09744873e+01 1.15257826e+01 1.35819996e-02
      3.57291698e+00 1.09437218e+01 3.03109996e-02 5.61671094e+03
      2.27329992e-02 4.30837989e-01 3.84878397e+00 6.98642773e+03 176.
      2.61840001e-02 4.92565680e+00 -1.90076122e+01 -1.74199995e-02
      6.54468000e-01 1.10382919e+01 1.41062105e+00 1.19502001e-01
      2.48232007e-01 2.02569999e-02 8.80679893e+00 6.88930005e-02 0.
      2.72661324e+01 2.00847998e-01 4.47908592e+00 5.79449981e-02
      3.06217556e+01 1.41152679e+02 9.48050022e-02 3.47113395e+00
      1.60076007e-01 6.03171814e+02 177. 1.21324301e+00 -4.76085007e-01
      7.43442017e+02 -1.77776337e+01 9.78510007e-02 1.45043686e+02
      4.79579496e+00 5.53776979e-01 1.82891445e+01 2.86042005e-01
      9.84775238e+01 1.27821997e-01 1.19414930e+01 1.26250004e-02
      1.16526041e+01 1.22024500e+00 4.92617321e+00 6.57955225e+03
      4.92729992e-02 -2.53298014e-01 3.02807560e+01 6.83273584e+03
      5.57060018e-02 3.22055012e-01 9.71098006e-01 1.88459053e+01
      9.21754913e+01 8.30390006e-02 9.42030028e-02 2.32850540e+02
      2.42288589e+00 25. 4.19831581e+01 1.74778519e+01 1.08489990e+01
      1.24845343e+01 5.60769998e-02 7.83575487e+00 1.55376538e+03
      3.12127805e+00 177. 2.50066012e-01 152. 7.82807813e+03
      4.90137482e+00 5.44500427e+01 3.07654095e+00 1.49806201e+00
      1.61778412e+01 1.02300003e-01 7.18228996e-01 3.17887306e+00
      3.37210608e+00 3.94178314e+01 -1.17890873e+01 4.14399989e-03
      3.55462866e+03 1.70499995e-01 114. 3.77382994e+00 3.17290992e-01
      -1.77699006e+00 -1.92357898e+00 7.90772363e+03 1.58906021e+01
      1.52594414e+01 -2.76533008e-01 1.04779539e+01 9.65336025e-01
      2.22590007e-02 7.62289429e+02 -3.30774093e+00 1.06089003e-01
      1.62694817e+01 4.52961006e+01 1.04431267e+01 1.29095945e+01
      1.38092995e-01 8.54206924e+01 1.36670005e-02 1.36559997e-02
      8.55530243e+01 1.37988999e-01 7.96486974e-01 -8.68399963e-02
      7.20102119e+00 2.66368713e+01 6.66842997e-01 1.29013376e+01
      -9.63053513e+00 3.38546395e+00 1.65649986e+01 1.64094429e+01
      7.52213001e-01 1.61459579e+01 3.56303406e+00 6.97154522e+00
      9.70830023e-02 -7.94576311e+00 9.08100009e-02 9.52930003e-02
      8.71440023e-02 9.11732941e+01 1.57598603e+00 1.88927040e+01
      1.10662033e+02 -9.27976012e-01 8.86118958e+02 8.75451813e+01
      2.13868542e+01 4.72793996e-01 -3.68589306e+00 -3.36757004e-01
      9.24626389e+01 2.76588497e+01 -2.58051109e+00 9.25254883e+03
      -3.10547047e+01 4.98789996e-02 1.03455448e+01 1.37634099e+00
      6.20163023e-01 1.66402817e+01 9.81595039e+00 4.19978094e+00
      1.37673893e+01 9.69939977e-02 4.06230879e+00 6.31123590e+00
      -5.47594011e-01 -2.18541995e-01 -2.53371000e-01 4.22529988e-02
      1.62417393e+01 1.74289003e-01 0. 9.37990189e+01 -9.35591996e-01
      1.09821997e+01 2.93770935e+02 3.81161690e+00 8.04644203e+00
      1.76172165e+02 -2.89420992e-01 2.02536049e+01 8.54056836e+03
      3.97453904e+00 2.33024756e+03 8.29365082e+01 6.17880957e+03
      2.59563494e+00 1.95418894e+00 1.60676136e+01 2.27329992e-02
      9.26381969e+00 1.89440008e-02 -3.74882013e-01 5.48118744e+01
      6.44109994e-02 3.33309993e-02</_>
    <_>
      255. 8.33491027e-01 8.26319978e-02 1.30500002e-02 2.04777193e+00
      3.28896332e+01 1.25886202e+00 3.86653090e+00 5.90044975e-01
      6.10439003e-01 7.45709985e-02 5.25273609e+00 1.91432998e-01
      1.40809298e+00 11. 1.55891132e+01 -1.76198330e+01 6.46963232e+03
      2.42359992e-02 7.22075342e+03 -1.94539994e-01 8.82370025e-02
      -6.63306522e+00 2.56413803e+01 1.41558777e+02 5.56237996e-01
      1.91915005e-01 2.08969092e+00 0. 0. -4.66980003e-02 6.57480408e+02
      1.19550800e+00 5.13770723e+00 6.25692511e+00 -4.74177790e+00
      2.64699432e+02 255. -2.23145008e+00 1.55449104e+00 -2.48473096e+00
      9.43325901e+00 6.56890988e-01 3.00660248e+01 1.81101799e+00
      -2.78079510e+00 4.08330001e-02 2.61000004e-02 9.33553314e+01
      -9.50182974e-01 1.68325882e+01 5.81420068e+03 1.01006708e+01 154.
      6.08943999e-01 6.44502997e-01 7.55015967e+03 9.03965881e+02
      -3.13401014e-01 4.43075323e+00 4.29157305e+00 2.92799994e-03
      1.24784340e+02 2.47796202e+00 4.58362646e+03 1.60112798e+00
      2.15573996e-01 4.04735279e+00 1.61446686e+01 1.93884999e-01
      6.85931027e-01 4.25579995e-02 -4.14142013e-01 6.32628977e-01
      2.60439992e+00 1.38646526e+01 2.25278592e+00 2.05816555e+01
      5.85904694e+00 5.55862010e-01 -1.94991007e-01 1.29118748e+01
      -3.24248791e+00 8.53251801e+01 1.38168007e-01 1.36810001e-02
      -2.91229606e+00 4.02763993e-01 2.44680691e+00 9.00868416e+00
      5.59279993e-02 8.83629993e-02 2.12241507e+00 5.78569993e-02
      2.66494799e+00 8.41461105e+01 1.39096007e-01 1.30009708e+01
      1.37719996e-02 1.99699998e+00 5.26854610e+00 8.05410028e-01 0.
      6.52083993e-01 1.66986203e+00 2.28225212e+01 9.42354584e+00
      7.48788879e+02 5.67888784e+00 -1.44765005e-01 3.89996791e+00
      2.35318398e+00 9.30704651e+01 2.42107895e+02 -6.52899966e-02 1.
      9.82989967e-02 8.41265030e+01 1.39110997e-01 1.30030880e+01
      6.04709983e-01 1.37719996e-02 6.82623982e-01 1.31343994e+01 1.
      1.17749703e+00 8.23701706e+01 1.40493006e-01 3.17719012e-01
      9.17453308e+01 1.83743477e+01 1.39110005e-02 4.56375790e+00
      1.02201786e+01 6.00279655e+01 1.06562852e+04 2.38628000e-01
      2.33434007e-01 5.07368612e+00 1.23618438e+04 159. 1.71460006e-02
      4.48460102e+00 3.09113731e+01 -3.17299999e-02 6.03236973e-01
      1.03215666e+01 2.08331800e+00 4.55209985e-02 1.09541997e-01
      2.99919993e-02 -1.71875744e+01 3.49880010e-02 0. 2.35899448e+01
      1.69199996e-03 5.56443501e+00 3.98459993e-02 2.09656963e+01
      2.48649445e+02 9.87280011e-02 2.74929905e+00 1.06592998e-01
      3.16287817e+03 159. 1.18747199e+00 -6.28313005e-01 5.56485474e+02
      -1.19271004e+00 4.59196001e-01 1.58736877e+02 5.38793516e+00
      -1.09186106e+01 -8.88244987e-01 1.84532002e-01 8.20601959e+01
      1.40736997e-01 1.31585884e+01 1.39349997e-02 3.09204292e+00
      1.25876296e+00 5.61640501e+00 5.81803027e+03 3.17099988e-02
      1.08669996e-02 2.28355694e+01 9.33467578e+03 3.46510001e-02
      1.17449999e-01 1.51525295e+00 2.35085797e+00 9.25255432e+01
      7.73390010e-02 9.87500027e-02 7.38377075e+02 2.31746006e+00 33.
      1.55416107e+02 1.59498949e+01 1.02098169e+01 1.00425367e+01
      3.93490009e-02 2.61493707e+00 4.18365137e+03 3.81027997e-01 67.
      1.32848616e+01 210. 7.64032666e+03 5.19686222e+00 3.67337799e+01
      -1.54489005e+00 -3.32497907e+00 1.59631901e+01 2.34898999e-01
      6.17923975e-01 5.35234880e+00 3.65958190e+00 6.46811523e+01
      9.13899708e+00 -8.35399982e-03 7.57757031e+03 8.20280015e-02 113.
      6.81190014e-01 3.63128006e-01 6.29455984e-01 -1.46863997e-01
      7.81484131e+03 1.59754915e+01 2.71730957e+01 -2.31237993e-01
      1.00831842e+01 2.38261509e+00 -2.09000008e-03 9.49913757e+02
      2.15074396e+00 3.60551834e+01 1.59241772e+01 2.21662941e+01
      1.00339785e+01 1.31708431e+01 1.40866995e-01 8.18943863e+01
      1.39480000e-02 1.38999997e-02 8.24926682e+01 1.40395999e-01
      8.47136021e-01 1.89260635e+01 6.65894699e+00 1.23052094e+02
      2.84302807e+00 1.31276798e+01 6.84669986e-02 3.45638990e+00
      2.11782246e+01 1.58125744e+01 6.67442977e-01 1.59439392e+01
      1.93901896e+00 1.87229671e+01 9.87809971e-02 -3.83146501e+00
      9.87029970e-02 9.81770009e-02 0. 9.23526688e+01 9.30378973e-01
      1.59928331e+01 5.05360565e+01 -7.93452978e-01 7.24882507e+02
      6.15080719e+01 1.59928331e+01 8.06959987e-01 8.26145458e+00
      -2.75895000e-01 9.34024200e+01 2.14690533e+01 8.13143158e+00
      1.50070791e+04 -2.15607624e+01 7.18220025e-02 1.00919609e+01
      -3.35444003e-01 6.08645976e-01 1.00052557e+01 1.37605782e+01
      3.77882195e+00 1.00052557e+01 9.88299996e-02 4.49974918e+00
      3.71508503e+00 -5.38050011e-02 5.84349990e-01 -2.70269990e-01
      2.27363005e-01 1.59451237e+01 2.88180466e+01 0. 9.84349976e+01
      6.77709427e+01 1.01029902e+01 2.16396027e+02 2.17561507e+00
      8.10742569e+00 1.33209579e+02 -4.33317006e-01 3.49632072e+01
      7.62993701e+03 2.78486195e+01 8.69703418e+03 3.69899200e+02
      3.79134692e+03 -7.05278993e-01 1.36699700e+00 1.59113674e+01
      5.59299998e-03 4.61036491e+00 2.11036549e+01 -6.31753981e-01
      1.15342644e+02 9.32100043e-03 9.33689997e-02</_>
    <_>
      181. 3.92001762e+01 -5.09846985e-01 6.60377026e-01 2.49517703e+00
      1.51752024e+01 -8.53331528e+01 6.86259985e+00 5.67849994e-01
      2.24259710e+00 3.63880992e-01 4.92019987e+00 2.00464994e-01
      2.51089811e+00 46. 3.23584900e+01 3.37529492e+00 5.62035781e+04
      1.34771004e-01 1.43181396e+04 1.27948403e+00 7.74968982e-01
      -2.02598267e+01 3.31584435e+01 1.87340302e+02 5.59440970e-01
      1.32438695e+00 5.01954317e+00 0. 0. 2.89368004e-01 1.09948242e+03
      4.63669205e+00 5.64361906e+00 6.20129013e+00 -1.42345829e+01
      7.17266479e+02 255. -7.04477692e+00 5.02169180e+00 -2.94075394e+00
      1.61725000e-01 4.50433999e-01 2.50717335e+01 2.20918298e+00
      5.00152016e+00 5.75009994e-02 4.04312998e-01 9.34821548e+01
      -1.32585004e-01 5.69541779e+01 4.33535820e+04 1.75202160e+01 83.
      9.51101005e-01 4.42692995e-01 5.97712578e+04 6.28591858e+02
      1.04787099e+00 1.06299191e+01 1.34770004e-02 5.59989996e-02
      1.10411049e+02 3.24808192e+00 1.18777490e+04 5.36551380e+00
      1.53090000e-01 5.29649591e+00 1.37466300e+00 1.07816696e+00
      6.68488979e-01 2.89709996e-02 4.21209991e-01 6.33733988e-01
      1.85983801e+00 7.77627993e+00 2.67087412e+00 6.06469011e+00
      -1.08379898e+01 5.38972974e-01 -4.19237938e+01 1.32074347e+01
      9.65581322e+00 8.14000015e+01 1.41256005e-01 1.39870001e-02
      -8.34263980e-01 -3.00972015e-01 -6.60839891e+00 -3.62533455e+01
      6.60377026e-01 -4.07783985e-01 4.12956905e+00 3.77530789e+00
      3.20572901e+00 8.14000015e+01 1.41256005e-01 1.32074347e+01
      1.39870001e-02 3.92907000e+00 6.37027502e+00 -2.35299397e+00 0.
      4.74705994e-01 1.10177600e+00 4.88544464e+01 -5.81520319e+00
      3.34939880e+02 -1.10139008e+01 -1.19669294e+00 3.44973493e+00
      2.04249001e+00 9.32597504e+01 6.17311584e+02 -5.86821973e-01 2.
      9.97409970e-02 8.14834213e+01 1.41190007e-01 1.32013111e+01
      5.88226020e-01 1.39809996e-02 -1.04386902e+00 1.31699829e+01 3.
      1.57460904e+00 8.18964233e+01 1.40864998e-01 2.47482002e-01
      9.35000000e+01 2.45822105e+01 1.39490003e-02 5.99865227e+01 10.
      4.25875998e+00 1.62846729e+03 1.03773606e+00 2.09650993e-01
      5.01445484e+00 1.95393340e+04 185. 2.15739999e-02 4.73032522e+00
      -1.12122316e+01 3.46760005e-02 6.13812029e-01 10. 3.31812191e+00
      5.44579998e-02 1.22456998e-01 3.44769992e-02 4.27291393e+00
      2.91569997e-02 0. 2.76896763e+01 -4.41377997e-01 5.74810791e+00
      1.66630000e-02 4.71697986e-01 8.25801270e+02 9.90220010e-02
      3.31645799e+00 6.14820011e-02 2.45167822e+03 186. 1.31290495e+00
      1.02916896e+00 7.66718140e+02 -1.11077185e+01 1.42015994e-01
      9.15084915e+01 6.45017481e+00 2.46299100e+00 -1.74381697e+00
      1.50134996e-01 8.14834213e+01 1.41190007e-01 1.32012444e+01
      1.39809996e-02 -1.21561623e+01 1.97702801e+00 4.84968519e+00
      6.06682764e+03 9.67879966e-02 -1.92010000e-01 1.20619946e+01
      1.14141533e+04 1.55959995e-02 1.33423197e+00 3.86535096e+00
      9.89218330e+00 9.35031052e+01 5.18650003e-02 9.90220010e-02
      7.01316528e+02 -1.11450803e+00 27. 1.15659439e+02 1.59928331e+01
      1.00052557e+01 1.00052557e+01 1.73710007e-02 -5.54555607e+00
      2.05567749e+03 -2.35162997e+00 100. 1.53638804e+00 179.
      7.73734229e+03 6.20978117e+00 3.17250671e+01 1.43109998e-02
      5.96406603e+00 16. 5.39084017e-01 5.05118012e-01 9.52830219e+00
      2.75202160e+01 4.53395805e+01 2.68447151e+01 -1.02848999e-01
      7.87221045e+03 1.75201997e-01 180. -8.64344883e+00 1.32611006e-01
      -5.01936972e-01 -1.90569997e-01 7.62963525e+03 1.59928331e+01
      2.64823818e+01 4.32222009e-01 1.00350571e+01 3.44931293e+00
      1.67460993e-01 5.94253467e+03 -4.43874502e+00 3.01212940e+01 16.
      2.08894897e+00 10. 1.32074347e+01 1.41256005e-01 8.14000015e+01
      1.39870001e-02 1.39809996e-02 8.14834213e+01 1.41190007e-01
      9.99121010e-01 1.62968426e+01 4.17997313e+00 1.12414551e+02
      2.15633392e+00 1.32013111e+01 -3.90909985e-02 4.37689590e+00
      6.59299164e+01 16. 6.07685030e-01 1.59928331e+01 3.39708495e+00
      4.31805916e+01 9.90220010e-02 -1.84221344e+01 9.89819989e-02
      9.89789963e-02 0. 9.35000000e+01 1.33323801e+00 16. 7.08876038e+01
      1.32151103e+00 1.06016846e+03 5.18645554e+01 16. 1.14021206e+00
      7.08135796e+00 5.31139016e-01 9.38430710e+01 1.21293999e-01
      -3.22233429e+01 7.22057861e+03 3.29784966e+01 6.45129979e-02
      1.00052557e+01 4.14515686e+00 5.12875974e-01 10. -8.59673309e+00
      3.18774891e+00 10. 9.90559980e-02 6.03553581e+00 5.67258883e+00
      -8.71187496e+00 1.48114994e-01 -1.01902401e+00 9.43651021e-01
      1.59611330e+01 2.64016171e+01 0. 9.35000000e+01 6.14841080e+01
      1.00052557e+01 1.63353894e+03 2.50673890e+00 8.11831856e+00
      1.31061859e+02 6.02567971e-01 2.88074017e+01 7.62206348e+03
      4.31266993e-01 2.57191455e+03 5.01626282e+02 2.15171118e+03
      3.07470703e+00 2.51870394e+00 1.59928331e+01 1.75201997e-01
      7.00808620e+00 5.52560985e-01 1.31483003e-01 7.86335373e+01 0.
      1.56540006e-01</_>
    <_>
      255. -3.75968099e+00 -5.70068002e-01 4.02597010e-01 7.68301010e-01
      1.62337666e+01 -7.17222404e+00 -5.58577681e+00 7.78522015e-01
      2.23369002e-01 1.62339993e-02 3.33451009e+00 6.32438004e-01
      1.18903601e+00 11. 4.12662315e+00 1.61697674e+01 8.96321680e+03
      6.49400009e-03 8.03335510e+02 -4.97099990e-03 4.60272998e-01
      6.01496696e+00 7.87640905e+00 1.77677567e+02 6.16846025e-01
      -8.76164019e-01 -5.84576011e-01 6.49400009e-03 3.24700004e-03
      -1.21029997e-02 6.20378113e+01 2.02691007e+00 2.27562809e+00
      5.95477915e+00 -2.37688656e+01 2.10289116e+01 255. -8.26692200e+00
      1.03047705e+00 -5.68507004e+00 1.20129895e+00 7.09338009e-01
      1.31468287e+01 6.26847982e-01 -9.07986164e+00 1.81679994e-01
      6.49400009e-03 8.99424133e+01 2.40610000e-02 3.08019485e+01
      1.04606377e+04 1.42532473e+01 190. 1.08231199e+00 7.22474992e-01
      8.27840527e+03 1.72839127e+02 3.83539982e-02 2.05816197e+00
      2.66234010e-01 -4.37695122e+00 1.19122955e+02 2.09820104e+00
      2.37873096e+03 9.58688021e-01 1.09861100e+00 6.73051882e+00
      4.02272701e+00 9.73999966e-03 7.28838980e-01 4.09319997e-01
      9.32067585e+00 -6.80311024e-01 4.31818008e-01 7.38311720e+00
      4.49921012e-01 7.74675322e+00 -1.04033928e+01 8.65864992e-01
      -7.71999407e+00 1.22635536e+01 3.14368892e+00 9.39852676e+01
      1.31356001e-01 1.29939998e-02 -1.85238504e+00 4.66700010e-02
      -5.82117414e+00 2.38938904e+00 1.10390000e-01 -3.80948991e-01
      1.71177697e+00 3.32089400e+00 1.27330697e+00 1.03991791e+02
      1.23484001e-01 1.15136204e+01 1.21990005e-02 7.26550996e-01
      5.08752394e+00 1.60128996e-01 8.44160020e-02 6.93861008e-01
      1.16258204e+00 1.23051906e+00 5.13918304e+00 4.13178024e+01
      1.99853802e+01 1.67391300e+00 -2.98469998e-02 2.28748012e+00
      8.23583832e+01 1.37484009e+02 1.59560032e+01 2. 4.75614995e-01
      9.42553940e+01 1.31143004e-01 1.22433624e+01 7.75215030e-01
      1.29749998e-02 1.04432702e+00 1.10224657e+01 2. 1.10642302e+00
      1.10514687e+02 1.18353002e-01 3.06710005e-01 8.88387527e+01
      1.44675322e+01 1.16800005e-02 2.65909100e+00 1.28758707e+01
      9.73999966e-03 2.63080591e+03 4.22080010e-02 7.08010972e-01
      3.42969489e+00 1.08571123e+04 203. 2.17719991e-02 4.42630005e+00
      -2.64156990e+01 -2.11711004e-01 7.03186989e-01 1.12626534e+01
      1.46127701e+00 1.51695997e-01 2.47087002e-01 2.63039991e-02
      5.63583708e+00 9.78749990e-02 0. 2.30409069e+01 8.08890015e-02
      3.90044188e+00 4.38539982e-02 2.67954559e+01 4.54058647e+01
      9.16419998e-02 6.85346317e+00 1.33800000e-01 1.67594452e+02 202.
      1.17582595e+00 7.90493011e-01 5.30883362e+02 -1.19725742e+01
      4.20441985e-01 1.45147797e+02 4.93483305e+00 6.11000001e-01
      1.51712351e+01 3.88628989e-01 1.01622360e+02 1.25348002e-01
      1.16888285e+01 1.23870000e-02 -4.27659321e+00 1.37652600e+00
      4.44469786e+00 5.15424170e+03 9.61449966e-02 -4.55608994e-01
      2.90097408e+01 5.24263965e+03 5.19969985e-02 1.88636398e+00
      1.14339495e+00 1.18084421e+01 8.87558670e+01 9.58120003e-02
      9.57610011e-02 2.12021851e+02 -1.59811103e+00 49. 1.30079317e+01
      1.85385685e+01 1.12807713e+01 1.36455355e+01 3.94910015e-02
      4.95631009e-01 2.04689490e+03 4.90877002e-01 217. 7.26298714e+00
      187. 7.89077588e+03 5.23682308e+00 2.14285707e+00 -3.48506987e-01
      -6.37472105e+00 5.17390900e+01 2.59739999e-02 7.45995998e-01
      1.18246746e+01 5.74350595e+00 4.52426224e+01 -2.61301899e+00
      1.56100001e-02 9.43541199e+02 3.24700004e-03 177. -3.02747011e-01
      3.05164009e-01 2.09013999e-01 -1.16917002e+00 8.60542188e+03
      1.89653645e+01 1.45609703e+01 2.50919294e+00 1.60094509e+01
      1.43574905e+00 -1.63700003e-02 1.26698340e+03 -1.79572999e-01
      7.89545441e+01 1.74578304e+01 5.43863640e+01 4.80451431e+01
      8.22140121e+00 8.88260007e-02 1.48049576e+02 8.68800003e-03
      1.20029999e-02 1.06311806e+02 1.21659003e-01 9.68617976e-01
      -8.18199158e+00 3.86357903e+00 2.18047821e+02 7.83116913e+00
      1.13501453e+01 8.24136925e+00 5.45262194e+00 2.67987003e+01
      1.70061283e+01 6.97897017e-01 1.67338333e+01 5.16604006e-01
      1.72694817e+01 7.15510026e-02 -1.33953500e+00 9.24839973e-02
      9.62390006e-02 7.46750012e-02 8.52718658e+01 9.85202014e-01
      2.03350811e+01 1.30626465e+02 4.08010989e-01 7.69508789e+02
      7.10368500e+01 2.43531723e+01 1.62439895e+00 -4.19699997e-02
      4.55354005e-01 9.35184937e+01 2.55876617e+01 3.53520393e+00
      1.85418970e+03 -2.07628841e+01 9.52140018e-02 1.56771269e+01
      1.01819001e-01 6.43334985e-01 2.23770065e+01 7.91352320e+00
      2.96400852e+01 1.48721304e+01 8.88900012e-02 7.02383900e+00
      8.82454395e+00 -1.11164999e+00 -1.96603000e-01 5.69140971e-01
      1.61127999e-01 1.93441734e+01 3.18181992e-01 3.24700004e-03
      9.60962601e+01 -1.76769805e+00 1.10812702e+01 2.22228851e+02
      9.74029973e-02 8.34955025e+00 1.60840881e+02 6.30348980e-01
      4.90496979e+01 8.19490332e+03 8.53246784e+00 2.22143555e+03
      5.01612167e+01 1.05412559e+04 -4.53354001e-01 1.63195503e+00
      1.63439751e+01 5.51950000e-02 1.98051906e+00 1.92857099e+00
      6.94151998e-01 5.76853561e+01 7.14286029e-01 5.69679998e-02</_>
    <_>
      255. -2.18512917e+01 -4.00569998e-02 1.46534994e-01 2.12663388e+00
      2.01904964e+01 -1.40814197e+00 2.22211003e+00 6.02190018e-01
      1.47535503e+00 3.13999988e-02 5.12020206e+00 2.09656999e-01
      1.33633494e+00 69. 9.62947011e-01 1.49993458e+01 1.35312073e+03
      1.57002002e-01 1.05271064e+04 -1.13946295e+00 -5.53942978e-01
      5.02658010e-01 2.68634396e+01 1.82987122e+02 6.10846996e-01
      2.08197996e-01 2.81388015e-01 4.18669991e-02 0. 4.15999995e-04
      7.21644409e+02 1.04875898e+00 5.09866190e+00 5.45735312e+00
      2.63196106e+01 3.14382294e+02 255. 2.02522707e+00 7.91550994e-01
      -8.50785017e-01 4.18669991e-02 7.66044021e-01 2.80905304e+01
      2.42154408e+00 -9.78946984e-01 4.98079993e-02 2.09335998e-01
      9.31333160e+01 -4.37005997e-01 0. 1.51001575e+03 2.97990379e+01
      165. 4.25068903e+00 7.51430988e-01 1.66616113e+03 7.89077881e+02
      5.61277986e-01 5.46628809e+00 0. -1.27477005e-01 1.66752243e+02
      1.80865705e+00 6.77969299e+02 8.43375027e-01 2.11618006e-01
      8.05944979e-01 3.14004987e-01 1.28741896e+00 6.54299021e-01
      4.49520014e-02 -2.25876004e-01 5.05494499e+00 9.94347990e-01
      4.69960213e+00 2.23435497e+00 1.37115300e+00 -8.58940035e-02
      5.86598992e-01 2.84991894e+01 1.27660847e+01 -1.72320008e-02
      8.72681274e+01 1.36639997e-01 1.35249998e-02 2.05065608e+00
      3.15941006e-01 -8.43682289e+00 -1.30428391e+01 6.28010035e-02
      -2.58776993e-01 1.08770001e+00 -5.38580000e-01 1.92350399e+00
      8.53745193e+01 1.38128996e-01 1.29089003e+01 1.36730000e-02
      1.61277699e+00 3.90351009e+00 -7.77934015e-01 1.57002002e-01
      7.37429976e-01 6.86138988e-01 4.31965675e+01 2.47690606e+00
      4.55614868e+02 -1.78384418e+01 1.05581200e+00 -1.34473994e-01
      3.25880599e+00 9.08880997e+01 1.44166696e+00 6.72250018e-02 21.
      1.81476995e-01 8.62371140e+01 1.37450993e-01 1.28433619e+01
      5.61124027e-01 1.36070000e-02 3.97179794e+00 1.27546959e+01 6.
      1.32738197e+00 8.74166412e+01 1.36522993e-01 2.83019990e-01
      9.10073776e+01 4.08205986e+00 1.35129998e-02 1.64747753e+01
      1.03319559e+01 3.13999988e-02 9.21565674e+02 4.18673009e-01
      1.82616994e-01 5.41983891e+00 1.71992695e+04 174. 3.54040004e-02
      4.75844622e+00 1.37653100e+00 6.52585030e-01 7.56465018e-01
      1.05579519e+01 8.29837978e-01 3.58089991e-02 4.92294014e-01
      2.92450003e-02 1.68108616e+01 4.97680008e-02 0. 2.68475018e+01
      1.25725001e-01 5.00111389e+00 1.11672997e-01 2.70043964e+01
      3.87274506e+02 9.78289992e-02 1.22139864e+01 1.89179003e-01
      1.65548669e+03 172. 1.61049104e+00 -2.57207990e-01 7.20788330e+02
      -3.03607988e+00 -6.66899979e-02 1.28810349e+02 4.07263088e+00
      1.71029794e+00 3.05395991e-01 2.48573005e-01 8.15668411e+01
      1.41124994e-01 1.31951170e+01 1.39739998e-02 -7.68581295e+00
      1.65005195e+00 3.67581606e+00 3.36019678e+03 1.35992005e-01
      -8.14120024e-02 3.62152004e+00 5.59034082e+03 9.87839997e-02
      5.54741025e-01 9.32115972e-01 1.59933014e+01 9.13769379e+01
      1.66947007e-01 9.75409970e-02 9.31209656e+02 -2.34319901e+00 48.
      8.87870560e+01 1.59856672e+01 1.05011969e+01 1.00105114e+01
      9.13619995e-02 2.93128705e+00 6.79655762e+02 2.89337993e-01 104.
      1.74795902e+00 161. 7.63822314e+03 4.18139791e+00 2.70776634e+01
      8.39650035e-02 2.37845993e+00 1.59856672e+01 4.94033909e+00
      6.59219027e-01 2.45342274e+01 8.02805138e+00 2.60702076e+01
      8.88574409e+00 2.53118008e-01 1.09760654e+04 3.13999988e-02 176.
      3.66307497e+00 2.25610003e-01 -8.41085017e-01 -5.07965028e-01
      7.60901563e+03 1.59570236e+01 3.05157280e+01 3.05673987e-01
      1.05901318e+01 9.76665974e-01 -2.02061996e-01 2.49508987e+02
      2.50374508e+00 5.37994623e+00 1.58397646e+01 2.92338295e+01
      1.00105114e+01 1.31952267e+01 1.41124994e-01 8.15668411e+01
      1.39739998e-02 1.39410002e-02 8.19768143e+01 1.40801996e-01
      9.36549008e-01 6.29543018e+00 3.47473001e+00 4.69334984e+01
      1.78563957e+01 1.31648865e+01 -4.42500003e-02 4.93798113e+00
      4.18672800e+00 1.58540506e+01 6.53994024e-01 1.58933344e+01
      1.14203203e+00 2.09336400e+00 9.89359990e-02 -1.29242296e+01
      9.89390016e-02 9.80049968e-02 0. 9.19125290e+01 1.37593997e+00
      1.59488192e+01 8.14521637e+01 2.67944992e-01 4.64370850e+02
      1.08636589e+02 1.59662428e+01 1.98599696e+00 -2.10862708e+00
      1.73743105e+00 9.33949509e+01 4.42013817e+01 1.57997501e+00
      8.44853125e+03 2.84416313e+01 5.59599996e-02 1.00391541e+01
      4.39467013e-01 6.87321007e-01 1.00261478e+01 4.24165994e-01
      3.84364390e+00 1.00444746e+01 9.76570025e-02 4.48255301e+00
      3.71532393e+00 -3.80865008e-01 -1.84920002e-02 -3.90498996e-01
      -1.69676006e-01 1.58581953e+01 4.12392731e+01 0. 9.35102310e+01
      4.73056755e+01 1.00929804e+01 4.08495697e+02 2.74858704e+01
      8.30686855e+00 1.16184319e+02 6.63662016e-01 3.79239426e+01
      7.71623730e+03 5.68348312e+00 6.48240906e+02 4.95630249e+02
      3.23240137e+03 2.42800903e+00 2.56849289e+00 1.59097080e+01
      3.13999988e-02 2.56541767e+01 0. 7.42992997e-01 -1.02203732e+01
      7.32676983e-01 3.42330001e-02</_>
    <_>
      255. 5.73235893e+00 1.94681004e-01 1.18760097e+00 1.97684002e+00
      1.64955711e+01 -1.12584381e+01 -4.30678993e-01 6.04550004e-01
      -1.36869502e+00 4.12640989e-01 5.73490810e+00 1.25175998e-01
      1.61934495e+00 52. 2.90257645e+01 8.21680527e+01 5.77671875e+02
      1.00644000e-01 7.29031445e+03 3.55143011e-01 1.04359999e-01
      -2.95112300e+00 2.60563297e+01 1.63049011e+02 6.45223975e-01
      -2.65647697e+00 6.30877972e-01 0. 0. -6.09319992e-02
      6.78932251e+02 1.36696994e+00 4.98101616e+00 5.17679119e+00
      -1.53452711e+01 2.54217697e+02 255. 8.15545976e-01 1.55916297e+00
      -2.44567490e+00 7.04509988e-02 7.69958973e-01 4.13613510e+01
      2.40729904e+00 2.40495801e+00 2.59850007e-02 2.31481001e-01
      9.33382416e+01 1.36446595e+00 3.01929992e-02 1.12745300e+03
      2.88848629e+01 128. 2.53596592e+00 7.50301003e-01 9.71006348e+02
      1.71076123e+03 3.00130010e-01 1.11886501e+00 0. 9.53579992e-02
      1.04710548e+02 1.35015702e+00 2.23827661e+03 1.59101105e+00
      2.46648997e-01 8.01127243e+00 1.10708499e+00 2.91868001e-01
      6.44914985e-01 4.80300002e-02 1.48262000e+00 4.28404093e+00
      1.18357487e+01 1.56099033e+01 1.82973194e+00 7.13566780e+00
      5.34024811e+00 6.14318013e-01 -1.10849409e+01 1.25945034e+01
      1.13429756e+01 8.95391541e+01 1.34853005e-01 1.33480001e-02
      -1.03344431e+01 7.17419982e-02 -3.76150360e+01 -1.67628498e+01
      8.05149972e-02 2.88987994e-01 1.25298405e+00 -1.47492099e+00
      2.17519903e+00 8.80191116e+01 1.36049002e-01 1.27093048e+01
      1.34669999e-02 2.75745010e+00 3.56922507e+00 -7.32936978e-01 0.
      7.13177979e-01 6.24988019e-01 1.92431564e+01 3.76551509e+00
      1.47912061e+03 -8.54964828e+00 -2.23128009e+00 8.00325990e-01
      3.43043208e+00 8.72096863e+01 -3.10874214e+01 -7.16562986e-01 3.
      1.17716998e-01 8.70154343e+01 1.36839002e-01 1.27845602e+01
      5.69418013e-01 1.35460002e-02 9.25544977e-01 1.22258472e+01 5.
      1.33123899e+00 9.44114075e+01 1.31020993e-01 1.27891004e-01
      8.98443527e+01 3.19041896e+00 1.29840001e-02 2.02294693e+01
      1.06462154e+01 1.30836993e-01 4.80855408e+02 3.94525003e+00
      1.85765997e-01 5.38599777e+00 1.89939160e+04 163. 3.98270003e-02
      5.49124002e+00 -7.13854015e-01 7.86494017e-01 7.68342972e-01
      1.10107870e+01 1.47535396e+00 3.62900011e-02 2.26732999e-01
      5.64710014e-02 3.28657198e+00 2.30240002e-02 0. 4.22129822e+01
      2.23900005e-02 5.93016911e+00 1.81458995e-01 1.50362320e+01
      3.58378906e+02 9.79069993e-02 1.20188379e+01 1.16098002e-01
      1.75223755e+03 159. 2.65694499e+00 -5.16915977e-01 1.78193567e+03
      -6.88209391e+00 -1.84287995e-01 1.21994965e+02 3.96972489e+00
      1.81210670e+01 7.75524974e-01 1.96096003e-01 8.16492310e+01
      1.41059995e-01 1.31890020e+01 1.39680002e-02 -4.26696491e+00
      1.96823800e+00 3.53710198e+00 1.17409414e+04 1.87077001e-01
      -1.93281993e-01 8.06159401e+00 1.16626230e+04 1.24122001e-01
      2.60668302e+00 1.57189500e+00 2.09339809e+00 9.09788742e+01
      1.99772999e-01 9.76170003e-02 9.26714844e+02 -3.11984491e+00 43.
      5.26441002e+01 1.59795380e+01 1.05865650e+01 1.00166521e+01
      1.10976003e-01 9.80538940e+00 7.55381714e+02 2.28246003e-01 120.
      1.76127195e+00 166. 7.62766455e+03 4.22807121e+00 2.45471001e+01
      -1.43795004e+01 -1.93169606e+00 1.59506960e+01 1.61030993e-01
      5.45819998e-01 2.50100632e+01 2.48289051e+01 2.74842072e+01
      5.33955288e+00 3.98600008e-03 1.14395273e+04 5.03219999e-02 200.
      -1.48654280e+01 1.52752995e-01 -1.75635302e+00 1.83117002e-01
      7.61609619e+03 1.59590807e+01 3.04419918e+01 -2.51922995e-01
      1.17541180e+01 1.27621996e+00 7.00519979e-02 7.23501831e+02
      1.65949404e+00 3.25885658e+01 1.60970497e+01 2.54830914e+01
      1.00528383e+01 1.31529913e+01 1.40677005e-01 8.21357117e+01
      1.39290001e-02 1.39420005e-02 8.19747696e+01 1.40803993e-01
