<?xml version="1.0"?>
<opencv_storage>
<opencv_ml_svm>
  <format>3</format>
  <svmType>C_SVC</svmType>
  <kernel>
    <type>LINEAR</type></kernel>
  <C>2.</C>
  <term_criteria><epsilon>1.1920928955078125e-07</epsilon>
    <iterations>1000</iterations></term_criteria>
  <var_count>22</var_count>
  <class_count>2</class_count>
  <class_labels type_id="opencv-matrix">
    <rows>2</rows>
    <cols>1</cols>
    <dt>i</dt>
    <data>
      -1 1</data></class_labels>
  <sv_total>1</sv_total>
  <support_vectors>
    <_>
      -1.70470312e-01 3.21053974e-02 -9.51896515e-03 -3.75034707e-03
      -7.46094855e-04 -4.39110398e-02 -1.60770789e-01 1.17930574e-02
      -1.17095290e-02 1.19784795e-01 -9.73527133e-03 -1.02403060e-01
      3.22700702e-02 -1.33140117e-01 9.07381065e-03 -4.52497089e-03
      3.14583890e-02 4.19595540e-02 -1.81397684e-02 2.39627704e-01
      -2.27478277e-02 5.63082695e-02</_></support_vectors>
  <uncompressed_sv_total>26</uncompressed_sv_total>
  <uncompressed_support_vectors>
    <_>
      2.30200007e-03 4.88913727e+01 6.71199977e-01 2.67096767e+01
      5.87233007e-01 -9.42794704e+00 1.15080404e+00 -6.26881003e-01
      6.85766995e-01 1.66940004e-01 3.14470043e+01 2.26180002e-01
      6.45345612e+01 3.95927995e-01 -3.24880562e+01 96. -9.49739963e-02
      1.13059174e+02 4.39180756e+01 -3.03348088e+00 1.38205695e+00
      3.46912422e+01</_>
    <_>
      4.85477000e-01 2.81809998e+01 7.06377983e-01 5.10091095e+01
      7.43230999e-01 -3.03943005e+01 -5.31793022e+00 2.32288003e-01
      7.36393988e-01 -4.79729995e-02 3.68234787e+01 3.14380005e-02
      4.94573326e+01 8.37203026e-01 3.76747894e+00 157. -2.37418994e-01
      9.83030090e+01 -5.94779930e+01 -3.63745987e-01 -4.39882421e+00
      2.33003006e+01</_>
    <_>
      1.35723993e-01 5.81910629e+01 1.04119205e+00 7.32404938e+01
      1.18089199e+00 -4.14056549e+01 3.82238293e+00 -1.01867700e+00
      9.59478021e-01 -2.92443007e-01 3.83712921e+01 -2.79062003e-01
      5.03841782e+01 -4.15120989e-01 2.56423998e+00 135. 4.49075013e-01
      9.46167374e+01 1.64908047e+01 1.37592697e+00 -3.18611789e+00
      2.64574261e+01</_>
    <_>
      -2.59810710e+00 4.04454079e+01 6.45256996e-01 1.38224201e+01
      6.72302008e-01 -3.35276604e+00 -4.28648806e+00 7.82940015e-02
      6.12940013e-01 7.32860029e-01 2.60109901e+01 -4.33892012e-01
      4.57404099e+01 1.79352403e+00 2.42270088e+00 110. -1.97299989e-03
      1.18118484e+02 6.26787071e+01 6.35577023e-01 7.65137017e-01
      3.49343262e+01</_>
    <_>
      1.36473000e-01 1.84345608e+01 6.13252997e-01 9.92599968e-03
      4.34850991e-01 2.95374851e+01 2.16777802e+00 5.70713997e-01
      6.12119973e-01 4.87598985e-01 2.49892464e+01 2.51327008e-01
      5.38564186e+01 4.47064304e+00 -7.83877516e+00 255. 3.37913990e-01
      1.63282471e+02 -2.95040379e+01 3.37987989e-01 1.46423900e+00
      2.34142513e+01</_>
    <_>
      1.62925398e+00 7.51961899e+00 1.94204003e-01 5.81894035e+01
      -7.20250010e-02 -3.62045212e+01 -2.09264994e-01 -1.26968995e-01
      3.27071995e-01 -7.94037998e-01 4.77675934e+01 1.04170799e+00
      4.49682770e+01 3.80689986e-02 1.81741095e+00 255. 2.28665993e-01
      9.77553177e+01 -2.62303371e+01 -1.44909993e-01 -3.84592199e+00
      3.70931740e+01</_>
    <_>
      2.29303002e-01 5.17866936e+01 7.44548023e-01 7.60200024e-02
      9.88349974e-01 -6.94587088e+00 -1.07225752e+01 -6.55809999e-01
      6.45026982e-01 -1.44766003e-01 6.04923010e-01 3.39993000e-01
      3.56257896e+01 -1.90797102e+00 -1.88527985e+01 179.
      -3.82914990e-01 3.85482979e+01 2.53967438e+01 -1.03510998e-01
      5.86506891e+00 1.73131046e+01</_>
    <_>
      1.86972594e+00 1.24147949e+01 8.43376994e-01 9.62558460e+00
      7.61708975e-01 5.54962587e+00 2.62126207e+00 -5.39847016e-01
      8.88364971e-01 -9.18430015e-02 1.98595943e+01 2.29314590e+00
      6.14508591e+01 1.54090297e+00 1.10726798e+00 83. -2.58082294e+00
      1.26229019e+02 -5.27589836e+01 6.09782994e-01 1.66039543e+01
      1.98751945e+01</_>
    <_>
      -3.71459983e-02 7.81921005e+01 1.02417397e+00 1.54696798e+00
      9.97226000e-01 2.45041542e+01 -3.72403097e+00 4.12986010e-01
      9.89978015e-01 1.91254005e-01 1.83823318e+01 1.60328999e-01
      2.48330669e+01 3.67870986e-01 2.82119703e+00 151. -3.98380011e-02
      1.43554092e+02 1.01834095e+00 1.49522007e-01 -3.88251901e+00
      1.34423056e+01</_>
    <_>
      5.08266985e-01 2.39750042e+01 4.71432000e-01 5.36573219e+00
      3.51936996e-01 1.33067341e+01 -4.83425522e+00 -6.56109974e-02
      5.41215003e-01 1.78978994e-01 2.42675991e+01 -3.90441000e-01
      2.87838097e+01 1.60991704e+00 5.06582212e+00 156. -3.39539982e-02
      1.37464432e+02 -1.39537964e+01 6.84270978e-01 1.27624094e+00
      2.11693420e+01</_>
    <_>
      3.49760018e-02 3.82156601e+01 1.65777600e+00 5.44094026e-01
      1.51942897e+00 2.02407589e+01 -4.34689283e+00 1.12902999e-01
      1.66434395e+00 -6.52770028e-02 2.24212208e+01 -4.99386013e-01
      1.87032413e+01 -5.44194996e-01 1.22229099e+00 106. 3.79925996e-01
      1.67843796e+02 1.40494862e+01 -1.67282903e+00 -3.98243999e+00
      9.34028625e+00</_>
    <_>
      5.39488018e-01 5.62558823e+01 3.63992006e-01 6.19864416e+00
      1.78986996e-01 9.81058598e+00 4.62713623e+00 7.30356991e-01
      4.36073989e-01 -7.53439963e-02 7.18505096e+00 7.11570978e-01
      4.14347382e+01 5.96789002e-01 -2.61440611e+00 133. 6.27761006e-01
      1.28386353e+02 -1.23360510e+01 -2.40467995e-01 -1.58427405e+00
      2.16024837e+01</_>
    <_>
      -3.24541003e-01 6.12836838e+01 1.50718796e+00 1.56692410e+01
      1.24539804e+00 2.24224305e+00 1.46557200e+00 2.73189992e-02
      1.57801199e+00 7.37868011e-01 2.40669231e+01 -2.09960006e-02
      5.08043747e+01 1.59733996e-01 1.16850197e+00 111. -1.47794700e+00
      1.33245178e+02 -1.21746073e+01 8.87335002e-01 5.92819989e-01
      7.97940779e+00</_>
    <_>
      -1.09269094e+00 6.92865753e+01 8.53617013e-01 1.28992500e+01
      1.13034105e+00 7.84123182e+00 -5.37321520e+00 -4.12600003e-02
      6.57841027e-01 7.30522990e-01 2.01704845e+01 -1.68004006e-01
      6.93745499e+01 8.51140022e-01 -3.91229200e+00 93. 5.95552981e-01
      1.29895355e+02 3.24380798e+01 1.08660003e-02 -2.00702000e+00
      7.31231403e+00</_>
    <_>
      -7.24129021e-01 3.76659355e+01 1.58906102e+00 4.15930003e-02
      1.42179298e+00 2.51877155e+01 2.59730101e+00 2.85827011e-01
      1.58613396e+00 -3.74789983e-02 1.01673000e-01 1.09130003e-01
      4.77031136e+01 6.83137000e-01 3.41948390e+00 177. -1.62521195e+00
      1.68738052e+02 -1.63929424e+01 2.53991890e+00 -4.68611479e+00
      6.07727098e+00</_>
    <_>
      1.43000007e-01 7.42963486e+01 7.10361004e-01 4.44144821e+00
      6.13812983e-01 1.71443691e+01 2.29808497e+00 1.30146995e-01
      6.32952988e-01 -2.13692993e-01 3.60670242e+01 1.82986006e-01
      4.36671791e+01 1.95810005e-01 3.91659997e-02 184. -2.97131985e-01
      1.44455978e+02 -3.51849861e+01 2.16506004e-01 -2.28314495e+00
      2.56702614e+01</_>
    <_>
      3.78621012e-01 3.10778198e+01 3.10911000e-01 1.35460482e+01
      9.99939963e-02 -3.01468897e+00 -8.42374027e-01 9.03759003e-01
      3.29724997e-01 8.76519024e-01 4.97018013e+01 2.15125993e-01
      3.52376175e+01 -5.10400009e+00 -1.63201797e+00 177. 6.82567000e-01
      1.19682877e+02 3.33051205e+00 -1.46765196e+00 -2.74379998e-02
      4.55066223e+01</_>
    <_>
      -1.33849993e-01 2.92638435e+01 1.19878495e+00 3.74259109e+01
      1.04340196e+00 -2.88645706e+01 7.59429991e-01 -3.39257985e-01
      1.27772200e+00 4.50114995e-01 3.23878059e+01 7.99942970e-01
      2.31160030e+01 -4.00537997e-01 9.97241020e-01 93. -1.62184998e-01
      8.22408981e+01 -7.74756851e+01 -2.08277607e+00 6.68218279e+00
      9.56816292e+00</_>
    <_>
      1.30182505e+00 5.60523491e+01 1.02189302e+00 1.84198227e+01
      1.18665600e+00 -2.96204305e+00 -5.83173990e-01 -2.15088993e-01
      7.68341005e-01 3.48940998e-01 2.30014038e+01 2.00923994e-01
      1.02851796e+00 3.78980003e-02 -9.11802101e+00 94. 1.06992997e-01
      1.19150536e+02 -8.47486801e+01 1.47893798e+00 -9.26297283e+00 0.</_>
    <_>
      -7.53340006e-01 7.99016190e+00 3.57457012e-01 9.23299976e-03
      4.54145998e-01 1.93694839e+01 5.70960379e+00 1.34267002e-01
      3.12076002e-01 9.18718994e-01 2.58986807e+00 -3.69778007e-01
      4.59082222e+01 -2.44810009e+00 -1.23324261e+01 216. 8.18602979e-01
      1.76484283e+02 -1.18557520e+01 -2.86541295e+00 5.80394602e+00
      3.43176765e+01</_>
    <_>
      2.46632409e+00 9.58965302e+01 1.52172995e+00 3.68385792e+00
      1.22069204e+00 1.89887276e+01 -1.26323497e+00 -5.16412973e-01
      1.60513496e+00 -2.73573995e-01 2.97387810e+01 -5.22397995e-01
      3.54989967e+01 -7.50540972e-01 4.87358004e-01 145. 4.83330011e-01
      1.44982132e+02 -3.13136292e+00 -2.07543612e+00 -1.96945095e+00
      1.36637640e+01</_>
    <_>
      -7.45545983e-01 1.38687086e+01 9.49492991e-01 1.96908379e+01
      8.90017986e-01 -3.71562099e+00 1.17394381e+01 6.22735023e-01
      9.38064992e-01 -6.72580004e-02 2.66038609e+00 1.31282002e-01
      4.03502960e+01 2.34116003e-01 -1.32918894e+00 121. -7.53730014e-02
      1.20631531e+02 -1.20934286e+01 -2.03088689e+00 -1.21031404e+00
      3.21767387e+01</_>
    <_>
      -2.29877993e-01 7.03642883e+01 1.93167698e+00 1.89328346e+01
      1.58209801e+00 -7.40456998e-01 1.71329007e-01 6.59099966e-02
      1.81706202e+00 7.26400018e-02 2.89843197e+01 6.61092997e-01
      1.94476948e+01 2.58619994e-01 1.44802403e+00 134. -1.84198007e-01
      1.24677864e+02 -4.77201767e+01 -9.33699980e-02 1.35241199e+00
      7.26655722e+00</_>
    <_>
      -2.18860000e-01 5.33011360e+01 8.19617987e-01 2.41712189e+00
      9.83443975e-01 1.59723186e+01 1.58191502e+00 -1.10055000e-01
      6.16518021e-01 3.93979996e-01 1.64558868e+01 -3.63380015e-02
      5.97320976e+01 2.33760691e+00 1.55733597e+00 167. -3.39412093e+00
      1.63758850e+02 3.14744210e+00 -9.80287015e-01 -5.70778418e+00
      1.17114420e+01</_>
    <_>
      -2.38546991e+00 5.21152840e+01 9.30887997e-01 1.50716381e+01
      8.83053005e-01 1.28378004e-01 3.11347008e-01 2.57189006e-01
      9.06620026e-01 5.36935985e-01 2.41589489e+01 2.88484007e-01
      3.04836540e+01 -5.60214996e-01 2.89214110e+00 114. 1.27662003e-01
      1.23048523e+02 2.06053562e+01 -4.08113986e-01 -4.78451777e+00
      2.65495129e+01</_>
    <_>
      6.38870001e-02 7.45021744e+01 1.09575295e+00 2.03361797e+00
      1.26922798e+00 2.30468025e+01 2.32152998e-01 8.09599981e-02
      8.30236971e-01 -1.08208999e-01 3.81647835e+01 -2.18238994e-01
      4.41554146e+01 4.55220997e-01 2.67329693e+00 175. 1.04125798e+00
      1.51441666e+02 -1.07732792e+01 1.02980003e-01 -9.27592945e+00
      9.45164013e+00</_></uncompressed_support_vectors>
  <decision_functions>
    <_>
      <sv_count>1</sv_count>
      <rho>8.3667842945944066e+00</rho>
      <alpha>
        1.</alpha>
      <index>
        0</index></_></decision_functions></opencv_ml_svm>
</opencv_storage>
